{"learner":{"attributes":{"best_iteration":"279","best_score":"2.452015","scikit_learn":"{\"_estimator_type\": \"regressor\"}"},"feature_names":["pickup_longitude","pickup_latitude","current_pickup_count","is_weekend","day_of_week","hour_of_day","temp","prcp","pickup_count_1h_ago","pickup_count_2h_ago","month","day_of_month"],"feature_types":["float","float","int","int","c","c","float","float","int","int","c","c"],"gradient_booster":{"model":{"gbtree_model_param":{"num_parallel_tree":"1","num_trees":"280"},"iteration_indptr":[0,1,2,3,4,5,6,7,8,9,10,11,12,13,14,15,16,17,18,19,20,21,22,23,24,25,26,27,28,29,30,31,32,33,34,35,36,37,38,39,40,41,42,43,44,45,46,47,48,49,50,51,52,53,54,55,56,57,58,59,60,61,62,63,64,65,66,67,68,69,70,71,72,73,74,75,76,77,78,79,80,81,82,83,84,85,86,87,88,89,90,91,92,93,94,95,96,97,98,99,100,101,102,103,104,105,106,107,108,109,110,111,112,113,114,115,116,117,118,119,120,121,122,123,124,125,126,127,128,129,130,131,132,133,134,135,136,137,138,139,140,141,142,143,144,145,146,147,148,149,150,151,152,153,154,155,156,157,158,159,160,161,162,163,164,165,166,167,168,169,170,171,172,173,174,175,176,177,178,179,180,181,182,183,184,185,186,187,188,189,190,191,192,193,194,195,196,197,198,199,200,201,202,203,204,205,206,207,208,209,210,211,212,213,214,215,216,217,218,219,220,221,222,223,224,225,226,227,228,229,230,231,232,233,234,235,236,237,238,239,240,241,242,243,244,245,246,247,248,249,250,251,252,253,254,255,256,257,258,259,260,261,262,263,264,265,266,267,268,269,270,271,272,273,274,275,276,277,278,279,280],"tree_info":[0,0,0,0,0,0,0,0,0,0,0,0,0,0,0,0,0,0,0,0,0,0,0,0,0,0,0,0,0,0,0,0,0,0,0,0,0,0,0,0,0,0,0,0,0,0,0,0,0,0,0,0,0,0,0,0,0,0,0,0,0,0,0,0,0,0,0,0,0,0,0,0,0,0,0,0,0,0,0,0,0,0,0,0,0,0,0,0,0,0,0,0,0,0,0,0,0,0,0,0,0,0,0,0,0,0,0,0,0,0,0,0,0,0,0,0,0,0,0,0,0,0,0,0,0,0,0,0,0,0,0,0,0,0,0,0,0,0,0,0,0,0,0,0,0,0,0,0,0,0,0,0,0,0,0,0,0,0,0,0,0,0,0,0,0,0,0,0,0,0,0,0,0,0,0,0,0,0,0,0,0,0,0,0,0,0,0,0,0,0,0,0,0,0,0,0,0,0,0,0,0,0,0,0,0,0,0,0,0,0,0,0,0,0,0,0,0,0,0,0,0,0,0,0,0,0,0,0,0,0,0,0,0,0,0,0,0,0,0,0,0,0,0,0,0,0,0,0,0,0,0,0,0,0,0,0,0,0,0,0,0,0,0,0,0,0,0,0,0,0,0,0,0,0,0,0,0,0,0,0],"trees":[{"base_weights":[-2.451287E-1,-3.2074612E-1,5.165521E-1,-3.8679132E-1,-1.1844145E-1,2.4783199E-1,7E-1,-2.0703E-2,-1.6168183E-2,-9.609181E-3,-8.786562E-4,8.859077E-3,1.8169258E-2,2.7935518E-2,3.5E-2],"categories":[],"categories_nodes":[],"categories_segments":[],"categories_sizes":[],"default_left":[0,0,0,0,0,0,0,0,0,0,0,0,0,0,0],"id":0,"left_children":[1,3,5,7,9,11,13,-1,-1,-1,-1,-1,-1,-1,-1],"loss_changes":[4.760673E6,1.0046475E6,7.907946E5,9.8042E4,1.3765028E5,4.1607094E4,1.6443E4,0E0,0E0,0E0,0E0,0E0,0E0,0E0,0E0],"parents":[2147483647,0,0,1,1,2,2,3,3,4,4,5,5,6,6],"right_children":[2,4,6,8,10,12,14,-1,-1,-1,-1,-1,-1,-1,-1],"split_conditions":[1.6E1,6E0,2.7E1,3E0,1E1,2.1E1,3.2E1,-2.0703E-2,-1.6168183E-2,-9.609181E-3,-8.786562E-4,8.859077E-3,1.8169258E-2,2.7935518E-2,3.5E-2],"split_indices":[2,2,2,2,2,2,2,0,0,0,0,0,0,0,0],"split_type":[0,0,0,0,0,0,0,0,0,0,0,0,0,0,0],"sum_hessian":[8.265584E7,7.5191096E7,7.464748E6,5.6685364E7,1.8505734E7,5.0964895E6,2.3682588E6,3.9642404E7,1.704296E7,1.069032E7,7.815413E6,3.1627512E6,1.9337381E6,8.236947E5,1.5445641E6],"tree_param":{"num_deleted":"0","num_feature":"12","num_nodes":"15","size_leaf_vector":"1"}},{"base_weights":[-2.4189658E-1,-3.2296616E-1,4.5327768E-1,-3.8466176E-1,-1.2658156E-1,2.1458678E-1,7E-1,-2.0616908E-2,-1.6030237E-2,-9.470657E-3,-1.5062907E-3,6.920963E-3,1.6340848E-2,2.644867E-2,3.5E-2],"categories":[],"categories_nodes":[],"categories_segments":[],"categories_sizes":[],"default_left":[0,0,0,0,0,0,0,0,0,0,0,0,0,0,0],"id":1,"left_children":[1,3,5,7,9,11,13,-1,-1,-1,-1,-1,-1,-1,-1],"loss_changes":[4.6005645E6,8.857605E5,9.121434E5,9.86255E4,1.0591575E5,5.1919125E4,2.475625E4,0E0,0E0,0E0,0E0,0E0,0E0,0E0,0E0],"parents":[2147483647,0,0,1,1,2,2,3,3,4,4,5,5,6,6],"right_children":[2,4,6,8,10,12,14,-1,-1,-1,-1,-1,-1,-1,-1],"split_conditions":[1.5E1,6E0,2.7E1,3E0,1E1,2E1,3.2E1,-2.0616908E-2,-1.6030237E-2,-9.470657E-3,-1.5062907E-3,6.920963E-3,1.6340848E-2,2.644867E-2,3.5E-2],"split_indices":[2,2,2,2,2,2,2,0,0,0,0,0,0,0,0],"split_type":[0,0,0,0,0,0,0,0,0,0,0,0,0,0,0],"sum_hessian":[8.1631816E7,7.310634E7,8.525486E6,5.562983E7,1.7476502E7,6.073634E6,2.4518522E6,3.8846052E7,1.678378E7,1.0582819E7,6.893684E6,3.6181188E6,2.4555152E6,8.4639475E5,1.6054575E6],"tree_param":{"num_deleted":"0","num_feature":"12","num_nodes":"15","size_leaf_vector":"1"}},{"base_weights":[-2.3863204E-1,-3.2549793E-1,3.964483E-1,-3.8254985E-1,-1.3506703E-1,1.8490764E-1,7E-1,-2.0530423E-2,-1.5896458E-2,-1.0074383E-2,-3.1794575E-3,5.1865573E-3,1.4727327E-2,2.5153672E-2,3.5E-2],"categories":[],"categories_nodes":[],"categories_segments":[],"categories_sizes":[],"default_left":[0,0,0,0,0,0,0,0,0,0,0,0,0,0,0],"id":2,"left_children":[1,3,5,7,9,11,13,-1,-1,-1,-1,-1,-1,-1,-1],"loss_changes":[4.446079E6,7.70249E5,1.0096925E6,9.8912E4,7.759309E4,6.3843125E4,3.3567E4,0E0,0E0,0E0,0E0,0E0,0E0,0E0,0E0],"parents":[2147483647,0,0,1,1,2,2,3,3,4,4,5,5,6,6],"right_children":[2,4,6,8,10,12,14,-1,-1,-1,-1,-1,-1,-1,-1],"split_conditions":[1.4E1,6E0,2.7E1,3E0,9E0,1.9E1,3.2E1,-2.0530423E-2,-1.5896458E-2,-1.0074383E-2,-3.1794575E-3,5.1865573E-3,1.4727327E-2,2.5153672E-2,3.5E-2],"split_indices":[2,2,2,2,2,2,2,0,0,0,0,0,0,0,0],"split_type":[0,0,0,0,0,0,0,0,0,0,0,0,0,0,0],"sum_hessian":[8.059336E7,7.0896216E7,9.697139E6,5.455259E7,1.6343626E7,7.173305E6,2.5238335E6,3.8036824E7,1.6515771E7,8.471504E6,7.8721215E6,4.121646E6,3.051659E6,8.655949E5,1.6582386E6],"tree_param":{"num_deleted":"0","num_feature":"12","num_nodes":"15","size_leaf_vector":"1"}},{"base_weights":[-2.3543619E-1,-3.2279423E-1,3.8350603E-1,-3.802837E-1,-1.3296932E-1,1.8533961E-1,7E-1,-2.0438647E-2,-1.5746346E-2,-9.960612E-3,-3.1071934E-3,5.5616256E-3,1.5599348E-2,2.577751E-2,3.5E-2],"categories":[],"categories_nodes":[],"categories_segments":[],"categories_sizes":[],"default_left":[0,0,0,0,0,0,0,0,0,0,0,0,0,0,0],"id":3,"left_children":[1,3,5,7,9,11,13,-1,-1,-1,-1,-1,-1,-1,-1],"loss_changes":[4.3059615E6,7.61586E5,9.879574E5,9.9736E4,7.611072E4,6.996716E4,3.126575E4,0E0,0E0,0E0,0E0,0E0,0E0,0E0,0E0],"parents":[2147483647,0,0,1,1,2,2,3,3,4,4,5,5,6,6],"right_children":[2,4,6,8,10,12,14,-1,-1,-1,-1,-1,-1,-1,-1],"split_conditions":[1.4E1,6E0,2.8E1,3E0,9E0,2E1,3.4E1,-2.0438647E-2,-1.5746346E-2,-9.960612E-3,-3.1071934E-3,5.5616256E-3,1.5599348E-2,2.577751E-2,3.5E-2],"split_indices":[2,2,2,2,2,2,2,0,0,0,0,0,0,0,0],"split_type":[0,0,0,0,0,0,0,0,0,0,0,0,0,0,0],"sum_hessian":[7.9637416E7,6.9787544E7,9.849873E6,5.356507E7,1.6222472E7,7.4548425E6,2.3950302E6,3.730411E7,1.6260961E7,8.382414E6,7.840058E6,4.7029405E6,2.7519022E6,9.190128E5,1.4760175E6],"tree_param":{"num_deleted":"0","num_feature":"12","num_nodes":"15","size_leaf_vector":"1"}},{"base_weights":[-2.3213589E-1,-3.256776E-1,3.3300486E-1,-3.8722202E-1,-1.6750735E-1,1.5760635E-1,7E-1,-2.0345172E-2,-1.638027E-2,-1.1670125E-2,-4.720408E-3,3.99211E-3,1.4049715E-2,2.5531491E-2,3.5E-2],"categories":[],"categories_nodes":[],"categories_segments":[],"categories_sizes":[],"default_left":[0,0,0,0,0,0,0,0,0,0,0,0,0,0,0],"id":4,"left_children":[1,3,5,7,9,11,13,-1,-1,-1,-1,-1,-1,-1,-1],"loss_changes":[4.1591185E6,6.57103E5,1.0545296E6,5.7018E4,9.107844E4,8.3474766E4,4.153575E4,0E0,0E0,0E0,0E0,0E0,0E0,0E0,0E0],"parents":[2147483647,0,0,1,1,2,2,3,3,4,4,5,5,6,6],"right_children":[2,4,6,8,10,12,14,-1,-1,-1,-1,-1,-1,-1,-1],"split_conditions":[1.3E1,5E0,2.8E1,3E0,8E0,1.9E1,3.6E1,-2.0345172E-2,-1.638027E-2,-1.1670125E-2,-4.720408E-3,3.99211E-3,1.4049715E-2,2.5531491E-2,3.5E-2],"split_indices":[2,2,2,2,2,2,2,0,0,0,0,0,0,0,0],"split_type":[0,0,0,0,0,0,0,0,0,0,0,0,0,0,0],"sum_hessian":[7.867548E7,6.750251E7,1.1172969E7,4.859434E7,1.8908176E7,8.699677E6,2.4732915E6,3.653344E7,1.2060898E7,9.94409E6,8.964085E6,5.336437E6,3.36324E6,1.1582585E6,1.315033E6],"tree_param":{"num_deleted":"0","num_feature":"12","num_nodes":"15","size_leaf_vector":"1"}},{"base_weights":[-2.2903031E-1,-3.2296374E-1,3.2303387E-1,-3.8509494E-1,-1.6485098E-1,1.582279E-1,7E-1,-2.0253338E-2,-1.6245725E-2,-1.1519549E-2,-4.6334164E-3,4.8091966E-3,1.5808532E-2,2.5078911E-2,3.5E-2],"categories":[],"categories_nodes":[],"categories_segments":[],"categories_sizes":[],"default_left":[0,0,0,0,0,0,0,0,0,0,0,0,0,0,0],"id":5,"left_children":[1,3,5,7,9,11,13,-1,-1,-1,-1,-1,-1,-1,-1],"loss_changes":[4.0280882E6,6.521165E5,1.02528225E6,5.7277E4,8.8591625E4,8.781594E4,3.8202E4,0E0,0E0,0E0,0E0,0E0,0E0,0E0,0E0],"parents":[2147483647,0,0,1,1,2,2,3,3,4,4,5,5,6,6],"right_children":[2,4,6,8,10,12,14,-1,-1,-1,-1,-1,-1,-1,-1],"split_conditions":[1.3E1,5E0,2.9E1,3E0,8E0,2.1E1,3.6E1,-2.0253338E-2,-1.6245725E-2,-1.1519549E-2,-4.6334164E-3,4.8091966E-3,1.5808532E-2,2.5078911E-2,3.5E-2],"split_indices":[2,2,2,2,2,2,2,0,0,0,0,0,0,0,0],"split_type":[0,0,0,0,0,0,0,0,0,0,0,0,0,0,0],"sum_hessian":[7.767643E7,6.638163E7,1.1294798E7,4.765526E7,1.8726372E7,8.961362E6,2.333436E6,3.5780828E7,1.1874433E7,9.81479E6,8.911582E6,6.433944E6,2.5274178E6,9.703175E5,1.3631186E6],"tree_param":{"num_deleted":"0","num_feature":"12","num_nodes":"15","size_leaf_vector":"1"}},{"base_weights":[-2.2585806E-1,-3.1608015E-1,2.3737651E-1,-3.690671E-1,-1.7135802E-1,1.22854166E-1,7E-1,-1.9470552E-2,-1.5381398E-2,-6.8145557E-3,-1.4941345E-2,2.4842513E-3,1.3720731E-2,3.5E-2,1.5594981E-3],"categories":[0,1,2,3,4,22,23,3,4,5],"categories_nodes":[4,6],"categories_segments":[0,7],"categories_sizes":[7,3],"default_left":[0,0,0,0,1,0,1,0,0,0,0,0,0,0,0],"id":6,"left_children":[1,3,5,7,9,11,13,-1,-1,-1,-1,-1,-1,-1,-1],"loss_changes":[3.2090215E6,4.928095E5,8.856608E5,5.8799E4,7.698725E4,1.1866944E5,3.90365E4,0E0,0E0,0E0,0E0,0E0,0E0,0E0,0E0],"parents":[2147483647,0,0,1,1,2,2,3,3,4,4,5,5,6,6],"right_children":[2,4,6,8,10,12,14,-1,-1,-1,-1,-1,-1,-1,-1],"split_conditions":[1.2E1,5E0,3.2E1,3E0,NaN,2E1,NaN,-1.9470552E-2,-1.5381398E-2,-6.8145557E-3,-1.4941345E-2,2.4842513E-3,1.3720731E-2,3.5E-2,1.5594981E-3],"split_indices":[8,8,8,8,5,8,5,0,0,0,0,0,0,0,0],"split_type":[0,0,0,0,1,0,1,0,0,0,0,0,0,0,0],"sum_hessian":[7.678186E7,6.4265212E7,1.2516643E7,4.704184E7,1.7223372E7,1.0701015E7,1.815628E6,3.5339948E7,1.1701892E7,1.3507452E7,3.71592E6,7.2168995E6,3.4841155E6,1.728358E6,8.727005E4],"tree_param":{"num_deleted":"0","num_feature":"12","num_nodes":"15","size_leaf_vector":"1"}},{"base_weights":[-2.2277193E-1,-3.2388198E-1,2.7350625E-1,-3.8091207E-1,-1.7058504E-1,1.352493E-1,7E-1,-2.0074679E-2,-1.5970102E-2,-1.1205666E-2,-5.1014437E-3,2.354288E-3,1.2664554E-2,2.5529806E-2,3.5E-2],"categories":[],"categories_nodes":[],"categories_segments":[],"categories_sizes":[],"default_left":[0,0,0,0,0,0,0,0,0,0,0,0,0,0,0],"id":7,"left_children":[1,3,5,7,9,11,13,-1,-1,-1,-1,-1,-1,-1,-1],"loss_changes":[3.8077362E6,5.511285E5,1.03718706E6,5.8167E4,6.2726938E4,1.1007219E5,4.166E4,0E0,0E0,0E0,0E0,0E0,0E0,0E0,0E0],"parents":[2147483647,0,0,1,1,2,2,3,3,4,4,5,5,6,6],"right_children":[2,4,6,8,10,12,14,-1,-1,-1,-1,-1,-1,-1,-1],"split_conditions":[1.2E1,5E0,3E1,3E0,8E0,1.8E1,4E1,-2.0074679E-2,-1.5970102E-2,-1.1205666E-2,-5.1014437E-3,2.354288E-3,1.2664554E-2,2.5529806E-2,3.5E-2],"split_indices":[2,2,2,2,2,2,2,0,0,0,0,0,0,0,0],"split_type":[0,0,0,0,0,0,0,0,0,0,0,0,0,0,0],"sum_hessian":[7.5883496E7,6.3039948E7,1.2843547E7,4.594669E7,1.709326E7,1.0576765E7,2.266782E6,3.44272E7,1.1519489E7,9.598669E6,7.4945915E6,6.0546465E6,4.5221185E6,1.1613088E6,1.1054732E6],"tree_param":{"num_deleted":"0","num_feature":"12","num_nodes":"15","size_leaf_vector":"1"}},{"base_weights":[-2.1959428E-1,-3.2118312E-1,2.650241E-1,-3.7876084E-1,-1.6801438E-1,1.3981639E-1,7E-1,-1.998232E-2,-1.582176E-2,-1.1061228E-2,-5.012936E-3,3.6364687E-3,1.5329652E-2,2.5260389E-2,3.5E-2],"categories":[],"categories_nodes":[],"categories_segments":[],"categories_sizes":[],"default_left":[0,0,0,0,0,0,0,0,0,0,0,0,0,0,0],"id":8,"left_children":[1,3,5,7,9,11,13,-1,-1,-1,-1,-1,-1,-1,-1],"loss_changes":[3.6931055E6,5.469135E5,9.888173E5,5.86705E4,6.108425E4,1.2295255E5,3.2730125E4,0E0,0E0,0E0,0E0,0E0,0E0,0E0,0E0],"parents":[2147483647,0,0,1,1,2,2,3,3,4,4,5,5,6,6],"right_children":[2,4,6,8,10,12,14,-1,-1,-1,-1,-1,-1,-1,-1],"split_conditions":[1.2E1,5E0,3.2E1,3E0,8E0,2.1E1,4E1,-1.998232E-2,-1.582176E-2,-1.1061228E-2,-5.012936E-3,3.6364687E-3,1.5329652E-2,2.5260389E-2,3.5E-2],"split_indices":[2,2,2,2,2,2,2,0,0,0,0,0,0,0,0],"split_type":[0,0,0,0,0,0,0,0,0,0,0,0,0,0,0],"sum_hessian":[7.50146E7,6.2014684E7,1.2999916E7,4.5071744E7,1.694294E7,1.098914E7,2.0107761E6,3.3758976E7,1.1312766E7,9.490116E6,7.452824E6,7.836754E6,3.1523855E6,8.626018E5,1.1481742E6],"tree_param":{"num_deleted":"0","num_feature":"12","num_nodes":"15","size_leaf_vector":"1"}},{"base_weights":[-2.16273E-1,-3.182021E-1,2.5717974E-1,-3.7649062E-1,-1.6496466E-1,1.3534397E-1,7E-1,-1.9883659E-2,-1.5677443E-2,-1.0900502E-2,-4.891384E-3,2.6909097E-3,1.3134606E-2,2.4228958E-2,3.5E-2],"categories":[],"categories_nodes":[],"categories_segments":[],"categories_sizes":[],"default_left":[0,0,0,0,0,0,0,0,0,0,0,0,0,0,0],"id":9,"left_children":[1,3,5,7,9,11,13,-1,-1,-1,-1,-1,-1,-1,-1],"loss_changes":[3.5787265E6,5.45032E5,9.531876E5,5.89375E4,5.988297E4,1.1492056E5,4.09095E4,0E0,0E0,0E0,0E0,0E0,0E0,0E0,0E0],"parents":[2147483647,0,0,1,1,2,2,3,3,4,4,5,5,6,6],"right_children":[2,4,6,8,10,12,14,-1,-1,-1,-1,-1,-1,-1,-1],"split_conditions":[1.2E1,5E0,3.2E1,3E0,8E0,1.9E1,4E1,-1.9883659E-2,-1.5677443E-2,-1.0900502E-2,-4.891384E-3,2.6909097E-3,1.3134606E-2,2.4228958E-2,3.5E-2],"split_indices":[2,2,2,2,2,2,2,0,0,0,0,0,0,0,0],"split_type":[0,0,0,0,0,0,0,0,0,0,0,0,0,0,0],"sum_hessian":[7.4157256E7,6.1020268E7,1.3136985E7,4.42054E7,1.6814866E7,1.1069051E7,2.0679344E6,3.3074444E7,1.1130957E7,9.393219E6,7.421647E6,6.74868E6,4.3203705E6,8.815643E5,1.1863701E6],"tree_param":{"num_deleted":"0","num_feature":"12","num_nodes":"15","size_leaf_vector":"1"}},{"base_weights":[-2.1319653E-1,-3.2249427E-1,2.1972571E-1,-3.7420243E-1,-1.7446575E-1,1.1726868E-1,7E-1,-1.9786596E-2,-1.5528219E-2,-1.1594783E-2,-6.4338683E-3,1.2917074E-3,1.2379885E-2,2.622287E-2,3.5E-2],"categories":[],"categories_nodes":[],"categories_segments":[],"categories_sizes":[],"default_left":[0,0,0,0,0,0,0,0,0,0,0,0,0,0,0],"id":10,"left_children":[1,3,5,7,9,11,13,-1,-1,-1,-1,-1,-1,-1,-1],"loss_changes":[3.4717585E6,4.484E5,9.851998E5,5.94855E4,3.9880188E4,1.5429061E5,2.827875E4,0E0,0E0,0E0,0E0,0E0,0E0,0E0,0E0],"parents":[2147483647,0,0,1,1,2,2,3,3,4,4,5,5,6,6],"right_children":[2,4,6,8,10,12,14,-1,-1,-1,-1,-1,-1,-1,-1],"split_conditions":[1.1E1,5E0,3.4E1,3E0,7E0,1.8E1,4.5E1,-1.9786596E-2,-1.5528219E-2,-1.1594783E-2,-6.4338683E-3,1.2917074E-3,1.2379885E-2,2.622287E-2,3.5E-2],"split_indices":[2,2,2,2,2,2,2,0,0,0,0,0,0,0,0],"split_type":[0,0,0,0,0,0,0,0,0,0,0,0,0,0,0],"sum_hessian":[7.337165E7,5.858179E7,1.4789857E7,4.3416044E7,1.5165749E7,1.2947563E7,1.8422936E6,3.24409E7,1.0975144E7,6.7276345E6,8.438115E6,7.6092E6,5.338363E6,9.177016E5,9.24592E5],"tree_param":{"num_deleted":"0","num_feature":"12","num_nodes":"15","size_leaf_vector":"1"}},{"base_weights":[-2.0989324E-1,-3.1955156E-1,2.1401152E-1,-3.718933E-1,-1.715305E-1,1.1438272E-1,7E-1,-1.9681744E-2,-1.538724E-2,-1.1448647E-2,-6.299539E-3,1.3080671E-3,1.1937137E-2,2.496232E-2,3.5E-2],"categories":[],"categories_nodes":[],"categories_segments":[],"categories_sizes":[],"default_left":[0,0,0,0,0,0,0,0,0,0,0,0,0,0,0],"id":11,"left_children":[1,3,5,7,9,11,13,-1,-1,-1,-1,-1,-1,-1,-1],"loss_changes":[3.371697E6,4.464705E5,9.395071E5,5.93745E4,3.9379938E4,1.4269067E5,3.8166125E4,0E0,0E0,0E0,0E0,0E0,0E0,0E0,0E0],"parents":[2147483647,0,0,1,1,2,2,3,3,4,4,5,5,6,6],"right_children":[2,4,6,8,10,12,14,-1,-1,-1,-1,-1,-1,-1,-1],"split_conditions":[1.1E1,5E0,3.4E1,3E0,7E0,1.8E1,4.5E1,-1.9681744E-2,-1.538724E-2,-1.1448647E-2,-6.299539E-3,1.3080671E-3,1.1937137E-2,2.496232E-2,3.5E-2],"split_indices":[2,2,2,2,2,2,2,0,0,0,0,0,0,0,0],"split_type":[0,0,0,0,0,0,0,0,0,0,0,0,0,0,0],"sum_hessian":[7.25335E7,5.7626356E7,1.4907144E7,4.2572344E7,1.5054011E7,1.3005918E7,1.9012258E6,3.1795884E7,1.0776462E7,6.6570295E6,8.396981E6,7.6084565E6,5.3974615E6,9.4701894E5,9.542069E5],"tree_param":{"num_deleted":"0","num_feature":"12","num_nodes":"15","size_leaf_vector":"1"}},{"base_weights":[-2.069271E-1,-3.1679147E-1,2.0762792E-1,-3.6958843E-1,-1.6877662E-1,1.16274826E-1,7E-1,-1.9579615E-2,-1.5253487E-2,-1.0456509E-2,-5.279002E-3,2.7106227E-3,1.4967083E-2,2.484312E-2,3.5E-2],"categories":[],"categories_nodes":[],"categories_segments":[],"categories_sizes":[],"default_left":[0,0,0,0,0,0,0,0,0,0,0,0,0,0,0],"id":12,"left_children":[1,3,5,7,9,11,13,-1,-1,-1,-1,-1,-1,-1,-1],"loss_changes":[3.2706558E6,4.43623E5,9.0000575E5,5.94015E4,3.806222E4,1.5162361E5,2.91995E4,0E0,0E0,0E0,0E0,0E0,0E0,0E0,0E0],"parents":[2147483647,0,0,1,1,2,2,3,3,4,4,5,5,6,6],"right_children":[2,4,6,8,10,12,14,-1,-1,-1,-1,-1,-1,-1,-1],"split_conditions":[1.1E1,5E0,3.6E1,3E0,8E0,2.2E1,4.5E1,-1.9579615E-2,-1.5253487E-2,-1.0456509E-2,-5.279002E-3,2.7106227E-3,1.4967083E-2,2.484312E-2,3.5E-2],"split_indices":[2,2,2,2,2,2,2,0,0,0,0,0,0,0,0],"split_type":[0,0,0,0,0,0,0,0,0,0,0,0,0,0,0],"sum_hessian":[7.181181E7,5.6767444E7,1.5044368E7,4.1842276E7,1.4925164E7,1.3345313E7,1.6990554E6,3.1201214E7,1.0641065E7,9.108818E6,5.8163465E6,9.966517E6,3.378796E6,7.076301E5,9.9142525E5],"tree_param":{"num_deleted":"0","num_feature":"12","num_nodes":"15","size_leaf_vector":"1"}},{"base_weights":[-2.0403536E-1,-3.13984E-1,2.0141561E-1,-3.782791E-1,-1.912146E-1,1.1256578E-1,7E-1,-2.0148968E-2,-1.7168721E-2,-1.220642E-2,-6.070993E-3,2.300523E-3,1.3674012E-2,2.3605924E-2,3.5E-2],"categories":[],"categories_nodes":[],"categories_segments":[],"categories_sizes":[],"default_left":[0,0,0,0,0,0,0,0,0,0,0,0,0,0,0],"id":13,"left_children":[1,3,5,7,9,11,13,-1,-1,-1,-1,-1,-1,-1,-1],"loss_changes":[3.1658172E6,4.409805E5,8.570943E5,3.1611E4,7.0913625E4,1.4348039E5,3.78205E4,0E0,0E0,0E0,0E0,0E0,0E0,0E0,0E0],"parents":[2147483647,0,0,1,1,2,2,3,3,4,4,5,5,6,6],"right_children":[2,4,6,8,10,12,14,-1,-1,-1,-1,-1,-1,-1,-1],"split_conditions":[1.1E1,4E0,3.6E1,2E0,7E0,2.1E1,4.5E1,-2.0148968E-2,-1.7168721E-2,-1.220642E-2,-6.070993E-3,2.300523E-3,1.3674012E-2,2.3605924E-2,3.5E-2],"split_indices":[2,2,2,2,2,2,2,0,0,0,0,0,0,0,0],"split_type":[0,0,0,0,0,0,0,0,0,0,0,0,0,0,0],"sum_hessian":[7.101623E7,5.586655E7,1.5149679E7,3.6664916E7,1.9201638E7,1.339722E7,1.7524591E6,2.1470978E7,1.5193937E7,1.0921597E7,8.280041E6,9.477332E6,3.9198882E6,7.283058E5,1.0241534E6],"tree_param":{"num_deleted":"0","num_feature":"12","num_nodes":"15","size_leaf_vector":"1"}},{"base_weights":[-2.0053717E-1,-3.110063E-1,1.9622244E-1,-3.7585756E-1,-1.8825667E-1,1.0911644E-1,7E-1,-2.005292E-2,-1.7018896E-2,-1.2043974E-2,-5.967E-3,5.9853E-4,1.0548085E-2,2.2796152E-2,3.5E-2],"categories":[],"categories_nodes":[],"categories_segments":[],"categories_sizes":[],"default_left":[0,0,0,0,0,0,0,0,0,0,0,0,0,0,0],"id":14,"left_children":[1,3,5,7,9,11,13,-1,-1,-1,-1,-1,-1,-1,-1],"loss_changes":[3.0814582E6,4.377745E5,8.262483E5,3.21725E4,6.89435E4,1.3353322E5,4.45035E4,0E0,0E0,0E0,0E0,0E0,0E0,0E0,0E0],"parents":[2147483647,0,0,1,1,2,2,3,3,4,4,5,5,6,6],"right_children":[2,4,6,8,10,12,14,-1,-1,-1,-1,-1,-1,-1,-1],"split_conditions":[1.1E1,4E0,3.6E1,2E0,7E0,1.7E1,4.5E1,-2.005292E-2,-1.7018896E-2,-1.2043974E-2,-5.967E-3,5.9853E-4,1.0548085E-2,2.2796152E-2,3.5E-2],"split_indices":[2,2,2,2,2,2,2,0,0,0,0,0,0,0,0],"split_type":[0,0,0,0,0,0,0,0,0,0,0,0,0,0,0],"sum_hessian":[7.030526E7,5.499351E7,1.5311753E7,3.5982944E7,1.9010566E7,1.3496595E7,1.8151581E6,2.1039106E7,1.494384E7,1.0779581E7,8.230985E6,6.9076675E6,6.5889275E6,7.470387E5,1.0681195E6],"tree_param":{"num_deleted":"0","num_feature":"12","num_nodes":"15","size_leaf_vector":"1"}},{"base_weights":[-1.9771849E-1,-3.1586155E-1,1.649761E-1,-3.7361413E-1,-1.9704999E-1,8.7250106E-2,7E-1,-1.9955505E-2,-1.6891573E-2,-1.18992645E-2,-6.505705E-3,-1.2664043E-4,1.0178249E-2,2.3504132E-2,3.5E-2],"categories":[],"categories_nodes":[],"categories_segments":[],"categories_sizes":[],"default_left":[0,0,0,0,0,0,0,0,0,0,0,0,0,0,0],"id":15,"left_children":[1,3,5,7,9,11,13,-1,-1,-1,-1,-1,-1,-1,-1],"loss_changes":[2.981625E6,3.601435E5,8.254809E5,3.22215E4,4.7040312E4,1.5908006E5,5.871775E4,0E0,0E0,0E0,0E0,0E0,0E0,0E0,0E0],"parents":[2147483647,0,0,1,1,2,2,3,3,4,4,5,5,6,6],"right_children":[2,4,6,8,10,12,14,-1,-1,-1,-1,-1,-1,-1,-1],"split_conditions":[1E1,4E0,3.6E1,2E0,7E0,1.7E1,5.3E1,-1.9955505E-2,-1.6891573E-2,-1.18992645E-2,-6.505705E-3,-1.2664043E-4,1.0178249E-2,2.3504132E-2,3.5E-2],"split_indices":[2,2,2,2,2,2,2,0,0,0,0,0,0,0,0],"split_type":[0,0,0,0,0,0,0,0,0,0,0,0,0,0,0],"sum_hessian":[6.958308E7,5.2486332E7,1.7096744E7,3.5318516E7,1.7167818E7,1.523304E7,1.8637041E6,2.0623682E7,1.4694833E7,1.0652921E7,6.5148975E6,8.597032E6,6.636008E6,1.1107791E6,7.5292506E5],"tree_param":{"num_deleted":"0","num_feature":"12","num_nodes":"15","size_leaf_vector":"1"}},{"base_weights":[-1.9473338E-1,-3.0099007E-1,1.4085193E-1,-3.5559237E-1,-1.8810122E-1,8.101082E-2,7E-1,-1.3552904E-2,-1.8548947E-2,-6.758572E-3,-1.30050955E-2,3.5852034E-4,1.0808702E-2,3.5E-2,1.2948972E-2],"categories":[0,1,2,3,4,8,9,10,11,12,13,14,15,16,17,18,19,20,21,22,23,0,1,2,3,4,15,19,20,21,22,23,0,3,4,5,23],"categories_nodes":[3,4,6],"categories_segments":[0,21,32],"categories_sizes":[21,11,5],"default_left":[0,0,0,1,1,0,1,0,0,0,0,0,0,0,0],"id":16,"left_children":[1,3,5,7,9,11,13,-1,-1,-1,-1,-1,-1,-1,-1],"loss_changes":[2.4542928E6,3.22228E5,6.416971E5,4.5828E4,6.4947125E4,1.515174E5,4.8270375E4,0E0,0E0,0E0,0E0,0E0,0E0,0E0,0E0],"parents":[2147483647,0,0,1,1,2,2,3,3,4,4,5,5,6,6],"right_children":[2,4,6,8,10,12,14,-1,-1,-1,-1,-1,-1,-1,-1],"split_conditions":[1E1,4E0,4E1,NaN,NaN,1.9E1,NaN,-1.3552904E-2,-1.8548947E-2,-6.758572E-3,-1.30050955E-2,3.5852034E-4,1.0808702E-2,3.5E-2,1.2948972E-2],"split_indices":[8,8,8,5,5,8,5,0,0,0,0,0,0,0,0],"split_type":[0,0,0,1,1,0,1,0,0,0,0,0,0,0,0],"sum_hessian":[6.882829E7,5.2276068E7,1.655222E7,3.5234012E7,1.7042058E7,1.5181335E7,1.3708848E6,5.425591E6,2.980842E7,9.821785E6,7.2202725E6,9.817811E6,5.3635245E6,1.1227065E6,2.4817827E5],"tree_param":{"num_deleted":"0","num_feature":"12","num_nodes":"15","size_leaf_vector":"1"}},{"base_weights":[-1.9143802E-1,-3.1033933E-1,1.5873227E-1,-3.6924854E-1,-1.9105637E-1,9.21082E-2,7E-1,-1.977446E-2,-1.6630614E-2,-1.159097E-2,-6.249827E-3,1.6118101E-3,1.3365253E-2,2.3680933E-2,3.5E-2],"categories":[],"categories_nodes":[],"categories_segments":[],"categories_sizes":[],"default_left":[0,0,0,0,0,0,0,0,0,0,0,0,0,0,0],"id":17,"left_children":[1,3,5,7,9,11,13,-1,-1,-1,-1,-1,-1,-1,-1],"loss_changes":[2.8383265E6,3.576005E5,7.574341E5,3.27495E4,4.5303625E4,1.6520319E5,3.741875E4,0E0,0E0,0E0,0E0,0E0,0E0,0E0,0E0],"parents":[2147483647,0,0,1,1,2,2,3,3,4,4,5,5,6,6],"right_children":[2,4,6,8,10,12,14,-1,-1,-1,-1,-1,-1,-1,-1],"split_conditions":[1E1,4E0,4E1,2E0,7E0,2.2E1,5.3E1,-1.977446E-2,-1.6630614E-2,-1.159097E-2,-6.249827E-3,1.6118101E-3,1.3365253E-2,2.3680933E-2,3.5E-2],"split_indices":[2,2,2,2,2,2,2,0,0,0,0,0,0,0,0],"split_type":[0,0,0,0,0,0,0,0,0,0,0,0,0,0,0],"sum_hessian":[6.817048E7,5.0890476E7,1.7280008E7,3.406641E7,1.6824068E7,1.5749554E7,1.5304526E6,1.9849346E7,1.4217062E7,1.0404094E7,6.419974E6,1.1738146E7,4.011408E6,7.301522E5,8.003005E5],"tree_param":{"num_deleted":"0","num_feature":"12","num_nodes":"15","size_leaf_vector":"1"}},{"base_weights":[-1.8880568E-1,-3.074791E-1,1.5308987E-1,-3.6692646E-1,-1.8816294E-1,8.885974E-2,7E-1,-1.9671489E-2,-1.6502148E-2,-1.1437783E-2,-6.14139E-3,-1.4414941E-4,9.873218E-3,2.2415904E-2,3.5E-2],"categories":[],"categories_nodes":[],"categories_segments":[],"categories_sizes":[],"default_left":[0,0,0,0,0,0,0,0,0,0,0,0,0,0,0],"id":18,"left_children":[1,3,5,7,9,11,13,-1,-1,-1,-1,-1,-1,-1,-1],"loss_changes":[2.739307E6,3.55488E5,7.085643E5,3.27E4,4.4201938E4,1.5771303E5,4.7078E4,0E0,0E0,0E0,0E0,0E0,0E0,0E0,0E0],"parents":[2147483647,0,0,1,1,2,2,3,3,4,4,5,5,6,6],"right_children":[2,4,6,8,10,12,14,-1,-1,-1,-1,-1,-1,-1,-1],"split_conditions":[1E1,4E0,4E1,2E0,7E0,1.7E1,5.3E1,-1.9671489E-2,-1.6502148E-2,-1.1437783E-2,-6.14139E-3,-1.4414941E-4,9.873218E-3,2.2415904E-2,3.5E-2],"split_indices":[2,2,2,2,2,2,2,0,0,0,0,0,0,0,0],"split_type":[0,0,0,0,0,0,0,0,0,0,0,0,0,0,0],"sum_hessian":[6.751398E7,5.011786E7,1.7396124E7,3.3451288E7,1.6666572E7,1.5828786E7,1.5673388E6,1.9464632E7,1.3986656E7,1.0279756E7,6.3868155E6,8.580495E6,7.248291E6,7.432226E5,8.2411606E5],"tree_param":{"num_deleted":"0","num_feature":"12","num_nodes":"15","size_leaf_vector":"1"}},{"base_weights":[-1.8576245E-1,-3.1309146E-1,1.2694587E-1,-3.6445832E-1,-1.9815718E-1,6.8687566E-2,7E-1,-1.9572012E-2,-1.635226E-2,-8.777458E-3,-1.4473676E-2,-1.2998701E-3,8.982842E-3,2.1351587E-2,3.5E-2],"categories":[0,1,2,3,4,22,23],"categories_nodes":[4],"categories_segments":[0],"categories_sizes":[7],"default_left":[0,0,0,0,1,0,0,0,0,0,0,0,0,0,0],"id":19,"left_children":[1,3,5,7,9,11,13,-1,-1,-1,-1,-1,-1,-1,-1],"loss_changes":[2.6619165E6,2.80484E5,7.1412894E5,3.31455E4,3.0295312E4,1.8630231E5,5.6601688E4,0E0,0E0,0E0,0E0,0E0,0E0,0E0,0E0],"parents":[2147483647,0,0,1,1,2,2,3,3,4,4,5,5,6,6],"right_children":[2,4,6,8,10,12,14,-1,-1,-1,-1,-1,-1,-1,-1],"split_conditions":[9E0,4E0,4E1,2E0,NaN,1.6E1,5.3E1,-1.9572012E-2,-1.635226E-2,-8.777458E-3,-1.4473676E-2,-1.2998701E-3,8.982842E-3,2.1351587E-2,3.5E-2],"split_indices":[2,2,2,2,5,2,2,0,0,0,0,0,0,0,0],"split_type":[0,0,0,0,1,0,0,0,0,0,0,0,0,0,0],"sum_hessian":[6.6854012E7,4.7509164E7,1.934485E7,3.2834602E7,1.467456E7,1.7731048E7,1.6138012E6,1.9076686E7,1.3757917E7,1.1762431E7,2.9121292E6,9.567522E6,8.1635255E6,7.596401E5,8.541611E5],"tree_param":{"num_deleted":"0","num_feature":"12","num_nodes":"15","size_leaf_vector":"1"}},{"base_weights":[-1.8270117E-1,-3.101344E-1,1.2396677E-1,-3.619795E-1,-1.9505963E-1,7.3538765E-2,7E-1,-1.946078E-2,-1.6215643E-2,-1.1987605E-2,-7.4785524E-3,1.7804945E-4,1.1452596E-2,2.2607122E-2,3.5E-2],"categories":[],"categories_nodes":[],"categories_segments":[],"categories_sizes":[],"default_left":[0,0,0,0,0,0,0,0,0,0,0,0,0,0,0],"id":20,"left_children":[1,3,5,7,9,11,13,-1,-1,-1,-1,-1,-1,-1,-1],"loss_changes":[2.5884988E6,2.791665E5,6.796391E5,3.30945E4,2.9546875E4,1.9775103E5,2.40335E4,0E0,0E0,0E0,0E0,0E0,0E0,0E0,0E0],"parents":[2147483647,0,0,1,1,2,2,3,3,4,4,5,5,6,6],"right_children":[2,4,6,8,10,12,14,-1,-1,-1,-1,-1,-1,-1,-1],"split_conditions":[9E0,4E0,4.5E1,2E0,6E0,2E1,5.3E1,-1.946078E-2,-1.6215643E-2,-1.1987605E-2,-7.4785524E-3,1.7804945E-4,1.1452596E-2,2.2607122E-2,3.5E-2],"split_indices":[2,2,2,2,2,2,2,0,0,0,0,0,0,0,0],"split_type":[0,0,0,0,0,0,0,0,0,0,0,0,0,0,0],"sum_hessian":[6.623644E7,4.67923E7,1.944414E7,3.2258666E7,1.4533633E7,1.8171528E7,1.2726121E6,1.872149E7,1.3537176E7,7.3309655E6,7.2026675E6,1.2532264E7,5.639264E6,3.9121822E5,8.8139394E5],"tree_param":{"num_deleted":"0","num_feature":"12","num_nodes":"15","size_leaf_vector":"1"}},{"base_weights":[-1.7980346E-1,-3.072164E-1,1.2023323E-1,-3.5959148E-1,-1.9197708E-1,7.105756E-2,7E-1,-1.9362064E-2,-1.6076146E-2,-8.475206E-3,-1.4189297E-2,-8.383465E-4,9.384611E-3,2.1371435E-2,3.5E-2],"categories":[0,1,2,3,4,22,23],"categories_nodes":[4],"categories_segments":[0],"categories_sizes":[7],"default_left":[0,0,0,0,1,0,0,0,0,0,0,0,0,0,0],"id":21,"left_children":[1,3,5,7,9,11,13,-1,-1,-1,-1,-1,-1,-1,-1],"loss_changes":[2.5083578E6,2.77981E5,6.4015656E5,3.333E4,2.969275E4,1.8681573E5,2.988125E4,0E0,0E0,0E0,0E0,0E0,0E0,0E0,0E0],"parents":[2147483647,0,0,1,1,2,2,3,3,4,4,5,5,6,6],"right_children":[2,4,6,8,10,12,14,-1,-1,-1,-1,-1,-1,-1,-1],"split_conditions":[9E0,4E0,4.5E1,2E0,NaN,1.7E1,5.3E1,-1.9362064E-2,-1.6076146E-2,-8.475206E-3,-1.4189297E-2,-8.383465E-4,9.384611E-3,2.1371435E-2,3.5E-2],"split_indices":[2,2,2,2,5,2,2,0,0,0,0,0,0,0,0],"split_type":[0,0,0,0,1,0,0,0,0,0,0,0,0,0,0],"sum_hessian":[6.5614748E7,4.6056492E7,1.9558256E7,3.1665054E7,1.4391439E7,1.8237706E7,1.3205496E6,1.8342566E7,1.3322487E7,1.1561433E7,2.8300052E6,1.0403783E7,7.8339225E6,4.0220234E5,9.183473E5],"tree_param":{"num_deleted":"0","num_feature":"12","num_nodes":"15","size_leaf_vector":"1"}},{"base_weights":[-1.770438E-1,-3.0431098E-1,1.1676762E-1,-3.571256E-1,-1.890881E-1,6.937684E-2,7E-1,-1.9253602E-2,-1.5935674E-2,-1.1675844E-2,-7.198093E-3,8.011123E-4,1.2633505E-2,2.4765126E-2,3.5E-2],"categories":[],"categories_nodes":[],"categories_segments":[],"categories_sizes":[],"default_left":[0,0,0,0,0,0,0,0,0,0,0,0,0,0,0],"id":22,"left_children":[1,3,5,7,9,11,13,-1,-1,-1,-1,-1,-1,-1,-1],"loss_changes":[2.4304355E6,2.759925E5,5.918936E5,3.338325E4,2.8578875E4,1.7888428E5,3.7379188E4,0E0,0E0,0E0,0E0,0E0,0E0,0E0,0E0],"parents":[2147483647,0,0,1,1,2,2,3,3,4,4,5,5,6,6],"right_children":[2,4,6,8,10,12,14,-1,-1,-1,-1,-1,-1,-1,-1],"split_conditions":[9E0,4E0,4.5E1,2E0,6E0,2.3E1,7.4E1,-1.9253602E-2,-1.5935674E-2,-1.1675844E-2,-7.198093E-3,8.011123E-4,1.2633505E-2,2.4765126E-2,3.5E-2],"split_indices":[2,2,2,2,2,2,2,0,0,0,0,0,0,0,0],"split_type":[0,0,0,0,0,0,0,0,0,0,0,0,0,0,0],"sum_hessian":[6.4997836E7,4.535283E7,1.9645006E7,3.1098318E7,1.4254512E7,1.8291686E7,1.35332E6,1.8001478E7,1.309684E7,7.1827635E6,7.0717485E6,1.4167646E7,4.1240408E6,8.920913E5,4.6122866E5],"tree_param":{"num_deleted":"0","num_feature":"12","num_nodes":"15","size_leaf_vector":"1"}},{"base_weights":[-1.740729E-1,-3.013438E-1,1.13694474E-1,-3.5457018E-1,-1.8621156E-1,6.706919E-2,7E-1,-1.914262E-2,-1.5791414E-2,-1.1552351E-2,-7.046442E-3,-1.2629797E-3,8.353636E-3,2.3685751E-2,3.5E-2],"categories":[],"categories_nodes":[],"categories_segments":[],"categories_sizes":[],"default_left":[0,0,0,0,0,0,0,0,0,0,0,0,0,0,0],"id":23,"left_children":[1,3,5,7,9,11,13,-1,-1,-1,-1,-1,-1,-1,-1],"loss_changes":[2.360861E6,2.73891E5,5.615229E5,3.348975E4,2.8687906E4,1.6955552E5,4.7286E4,0E0,0E0,0E0,0E0,0E0,0E0,0E0,0E0],"parents":[2147483647,0,0,1,1,2,2,3,3,4,4,5,5,6,6],"right_children":[2,4,6,8,10,12,14,-1,-1,-1,-1,-1,-1,-1,-1],"split_conditions":[9E0,4E0,4.5E1,2E0,6E0,1.6E1,7.4E1,-1.914262E-2,-1.5791414E-2,-1.1552351E-2,-7.046442E-3,-1.2629797E-3,8.353636E-3,2.3685751E-2,3.5E-2],"split_indices":[2,2,2,2,2,2,2,0,0,0,0,0,0,0,0],"split_type":[0,0,0,0,0,0,0,0,0,0,0,0,0,0,0],"sum_hessian":[6.4461396E7,4.46944E7,1.9766996E7,3.0564322E7,1.4130079E7,1.8363666E7,1.4033299E6,1.7667052E7,1.2897269E7,7.1001035E6,7.0299755E6,9.548221E6,8.815445E6,9.234755E5,4.7985438E5],"tree_param":{"num_deleted":"0","num_feature":"12","num_nodes":"15","size_leaf_vector":"1"}},{"base_weights":[-1.7109366E-1,-2.9843515E-1,1.10913165E-1,-3.5204178E-1,-1.8343048E-1,7.20436E-2,7E-1,-1.8622516E-2,-1.4829305E-2,-8.030622E-3,-1.3845046E-2,9.1892044E-4,1.2990761E-2,2.5963753E-2,3.5E-2],"categories":[0,1,2,3,4,22,23],"categories_nodes":[4],"categories_segments":[0],"categories_sizes":[7],"default_left":[0,0,0,0,1,0,0,0,0,0,0,0,0,0,0],"id":24,"left_children":[1,3,5,7,9,11,13,-1,-1,-1,-1,-1,-1,-1,-1],"loss_changes":[2.294768E6,2.7139925E5,5.3993656E5,3.39835E4,2.9850938E4,1.9007984E5,1.6783438E4,0E0,0E0,0E0,0E0,0E0,0E0,0E0,0E0],"parents":[2147483647,0,0,1,1,2,2,3,3,4,4,5,5,6,6],"right_children":[2,4,6,8,10,12,14,-1,-1,-1,-1,-1,-1,-1,-1],"split_conditions":[9E0,4E0,5.3E1,3E0,NaN,2.4E1,7.4E1,-1.8622516E-2,-1.4829305E-2,-8.030622E-3,-1.3845046E-2,9.1892044E-4,1.2990761E-2,2.5963753E-2,3.5E-2],"split_indices":[2,2,2,8,5,2,2,0,0,0,0,0,0,0,0],"split_type":[0,0,0,0,1,0,0,0,0,0,0,0,0,0,0],"sum_hessian":[6.3901224E7,4.402261E7,1.9878614E7,3.0026486E7,1.3996123E7,1.8863118E7,1.0154951E6,2.1948946E7,8.0775395E6,1.1249818E7,2.746305E6,1.4670333E7,4.192785E6,5.138713E5,5.0162378E5],"tree_param":{"num_deleted":"0","num_feature":"12","num_nodes":"15","size_leaf_vector":"1"}},{"base_weights":[-1.6838342E-1,-3.050195E-1,8.872761E-2,-3.4948146E-1,-1.9432564E-1,5.3719092E-2,7E-1,-1.850555E-2,-1.4682452E-2,-1.107617E-2,-6.726374E-3,-2.3460588E-3,7.849662E-3,2.468997E-2,3.5E-2],"categories":[],"categories_nodes":[],"categories_segments":[],"categories_sizes":[],"default_left":[0,0,0,0,0,0,0,0,0,0,0,0,0,0,0],"id":25,"left_children":[1,3,5,7,9,11,13,-1,-1,-1,-1,-1,-1,-1,-1],"loss_changes":[2.2248182E6,2.0352825E5,5.3142975E5,3.3981E4,1.9273156E4,2.1756097E5,2.24505E4,0E0,0E0,0E0,0E0,0E0,0E0,0E0,0E0],"parents":[2147483647,0,0,1,1,2,2,3,3,4,4,5,5,6,6],"right_children":[2,4,6,8,10,12,14,-1,-1,-1,-1,-1,-1,-1,-1],"split_conditions":[8E0,4E0,5.3E1,3E0,7E0,1.5E1,7.4E1,-1.850555E-2,-1.4682452E-2,-1.107617E-2,-6.726374E-3,-2.3460588E-3,7.849662E-3,2.468997E-2,3.5E-2],"split_indices":[2,2,2,8,8,2,2,0,0,0,0,0,0,0,0],"split_type":[0,0,0,0,0,0,0,0,0,0,0,0,0,0,0],"sum_hessian":[6.3329844E7,4.135345E7,2.1976394E7,2.950307E7,1.1850379E7,2.0932334E7,1.04406056E6,2.1543092E7,7.959979E6,8.145564E6,3.7048148E6,1.0601353E7,1.0330981E7,5.280256E5,5.1603494E5],"tree_param":{"num_deleted":"0","num_feature":"12","num_nodes":"15","size_leaf_vector":"1"}},{"base_weights":[-1.6548882E-1,-2.7983704E-1,9.646023E-2,-3.3035344E-1,-1.7102368E-1,6.38697E-2,7E-1,-1.1706906E-2,-1.7406186E-2,-5.9329877E-3,-1.2222789E-2,-4.6120584E-4,8.677761E-3,3.5E-2,7.550732E-3],"categories":[0,1,2,3,4,8,9,10,11,12,13,14,15,16,17,18,19,20,21,22,23,0,1,2,3,4,15,19,20,21,22,23,0,3,4,5,23],"categories_nodes":[3,4,6],"categories_segments":[0,21,32],"categories_sizes":[21,11,5],"default_left":[0,0,0,1,1,0,1,0,0,0,0,0,0,0,0],"id":26,"left_children":[1,3,5,7,9,11,13,-1,-1,-1,-1,-1,-1,-1,-1],"loss_changes":[1.8810176E6,2.40296E5,3.771333E5,5.10455E4,5.3294844E4,1.4519119E5,4.9121875E4,0E0,0E0,0E0,0E0,0E0,0E0,0E0,0E0],"parents":[2147483647,0,0,1,1,2,2,3,3,4,4,5,5,6,6],"right_children":[2,4,6,8,10,12,14,-1,-1,-1,-1,-1,-1,-1,-1],"split_conditions":[9E0,4E0,5.3E1,NaN,NaN,1.8E1,NaN,-1.1706906E-2,-1.7406186E-2,-5.9329877E-3,-1.2222789E-2,-4.6120584E-4,8.677761E-3,3.5E-2,7.550732E-3],"split_indices":[8,8,8,5,5,8,5,0,0,0,0,0,0,0,0],"split_type":[0,0,0,1,1,0,1,0,0,0,0,0,0,0,0],"sum_hessian":[6.279813E7,4.37152E7,1.9082928E7,2.985505E7,1.3860149E7,1.8109658E7,9.732702E5,4.654389E6,2.520066E7,8.090716E6,5.769433E6,1.0867571E7,7.242087E6,8.1028244E5,1.6298773E5],"tree_param":{"num_deleted":"0","num_feature":"12","num_nodes":"15","size_leaf_vector":"1"}},{"base_weights":[-1.6282535E-1,-2.991864E-1,8.529785E-2,-3.584878E-1,-2.1388064E-1,5.1903516E-2,7E-1,-1.868997E-2,-1.568212E-2,-1.29813105E-2,-8.193271E-3,-1.7961955E-3,7.907105E-3,2.2550367E-2,3.5E-2],"categories":[],"categories_nodes":[],"categories_segments":[],"categories_sizes":[],"default_left":[0,0,0,0,0,0,0,0,0,0,0,0,0,0,0],"id":27,"left_children":[1,3,5,7,9,11,13,-1,-1,-1,-1,-1,-1,-1,-1],"loss_changes":[2.1077315E6,2.03371E5,4.694363E5,1.62845E4,3.7720062E4,1.9588042E5,3.4163312E4,0E0,0E0,0E0,0E0,0E0,0E0,0E0,0E0],"parents":[2147483647,0,0,1,1,2,2,3,3,4,4,5,5,6,6],"right_children":[2,4,6,8,10,12,14,-1,-1,-1,-1,-1,-1,-1,-1],"split_conditions":[8E0,3E0,5.3E1,3E0,5E0,1.6E1,7.4E1,-1.868997E-2,-1.568212E-2,-1.29813105E-2,-8.193271E-3,-1.7961955E-3,7.907105E-3,2.2550367E-2,3.5E-2],"split_indices":[2,2,2,9,2,2,2,0,0,0,0,0,0,0,0],"split_type":[0,0,0,0,0,0,0,0,0,0,0,0,0,0,0],"sum_hessian":[6.2295624E7,4.020188E7,2.2093746E7,2.3715644E7,1.6486235E7,2.0993194E7,1.1005512E6,1.7679372E7,6.036272E6,8.610648E6,7.875587E6,1.1492416E7,9.500779E6,5.5105175E5,5.4949956E5],"tree_param":{"num_deleted":"0","num_feature":"12","num_nodes":"15","size_leaf_vector":"1"}},{"base_weights":[-1.6006224E-1,-2.9633066E-1,8.3111145E-2,-3.5596848E-1,-2.1095811E-1,1.8635044E-2,3.9507112E-1,-1.8557226E-2,-1.5146586E-2,-1.2831702E-2,-8.063293E-3,-2.616946E-3,4.687983E-3,1.4933039E-2,3.5E-2],"categories":[],"categories_nodes":[],"categories_segments":[],"categories_sizes":[],"default_left":[0,0,0,0,0,0,0,0,0,0,0,0,0,0,0],"id":28,"left_children":[1,3,5,7,9,11,13,-1,-1,-1,-1,-1,-1,-1,-1],"loss_changes":[2.0464874E6,2.015145E5,4.4611356E5,1.875525E4,3.6945875E4,9.8002414E4,1.6719281E5,0E0,0E0,0E0,0E0,0E0,0E0,0E0,0E0],"parents":[2147483647,0,0,1,1,2,2,3,3,4,4,5,5,6,6],"right_children":[2,4,6,8,10,12,14,-1,-1,-1,-1,-1,-1,-1,-1],"split_conditions":[8E0,3E0,2.9E1,3E0,5E0,1.4E1,7.4E1,-1.8557226E-2,-1.5146586E-2,-1.2831702E-2,-8.063293E-3,-2.616946E-3,4.687983E-3,1.4933039E-2,3.5E-2],"split_indices":[2,2,2,8,2,2,2,0,0,0,0,0,0,0,0],"split_type":[0,0,0,0,0,0,0,0,0,0,0,0,0,0,0],"sum_hessian":[6.1758628E7,3.9579332E7,2.2179294E7,2.3301706E7,1.6277626E7,1.8380418E7,3.7988765E6,1.8117514E7,5.1841915E6,8.48157E6,7.7960565E6,9.451303E6,8.929115E6,3.230948E6,5.679285E5],"tree_param":{"num_deleted":"0","num_feature":"12","num_nodes":"15","size_leaf_vector":"1"}},{"base_weights":[-1.5711504E-1,-2.93205E-1,8.120761E-2,-3.5341695E-1,-2.0777777E-1,9.565638E-3,3.446485E-1,-1.8438622E-2,-1.4996158E-2,-1.2677692E-2,-7.910273E-3,-3.0075673E-3,3.577249E-3,1.3318119E-2,3.5E-2],"categories":[],"categories_nodes":[],"categories_segments":[],"categories_sizes":[],"default_left":[0,0,0,0,0,0,0,0,0,0,0,0,0,0,0],"id":29,"left_children":[1,3,5,7,9,11,13,-1,-1,-1,-1,-1,-1,-1,-1],"loss_changes":[1.9876501E6,2.0065175E5,4.2041172E5,1.87945E4,3.6597125E4,7.567295E4,1.8327594E5,0E0,0E0,0E0,0E0,0E0,0E0,0E0,0E0],"parents":[2147483647,0,0,1,1,2,2,3,3,4,4,5,5,6,6],"right_children":[2,4,6,8,10,12,14,-1,-1,-1,-1,-1,-1,-1,-1],"split_conditions":[8E0,3E0,2.6E1,3E0,5E0,1.3E1,7.4E1,-1.8438622E-2,-1.4996158E-2,-1.2677692E-2,-7.910273E-3,-3.0075673E-3,3.577249E-3,1.3318119E-2,3.5E-2],"split_indices":[2,2,2,8,2,2,2,0,0,0,0,0,0,0,0],"split_type":[0,0,0,0,0,0,0,0,0,0,0,0,0,0,0],"sum_hessian":[6.128421E7,3.9008876E7,2.227533E7,2.288134E7,1.6127535E7,1.7512782E7,4.7625485E6,1.7778094E7,5.1032465E6,8.3848175E6,7.742717E6,8.241921E6,9.270861E6,4.1728298E6,5.8971856E5],"tree_param":{"num_deleted":"0","num_feature":"12","num_nodes":"15","size_leaf_vector":"1"}},{"base_weights":[-1.5456034E-1,-2.9023182E-1,7.8867055E-2,-3.508706E-1,-2.0488569E-1,1.7843511E-2,3.6467436E-1,-1.8318636E-2,-1.4854364E-2,-1.2514976E-2,-7.795643E-3,-2.5026624E-3,4.4329492E-3,1.3823916E-2,3.5E-2],"categories":[],"categories_nodes":[],"categories_segments":[],"categories_sizes":[],"default_left":[0,0,0,0,0,0,0,0,0,0,0,0,0,0,0],"id":30,"left_children":[1,3,5,7,9,11,13,-1,-1,-1,-1,-1,-1,-1,-1],"loss_changes":[1.9239769E6,1.9883925E5,3.894718E5,1.872725E4,3.5493938E4,8.847857E4,1.53682E5,0E0,0E0,0E0,0E0,0E0,0E0,0E0,0E0],"parents":[2147483647,0,0,1,1,2,2,3,3,4,4,5,5,6,6],"right_children":[2,4,6,8,10,12,14,-1,-1,-1,-1,-1,-1,-1,-1],"split_conditions":[8E0,3E0,2.9E1,3E0,5E0,1.4E1,7.4E1,-1.8318636E-2,-1.4854364E-2,-1.2514976E-2,-7.795643E-3,-2.5026624E-3,4.4329492E-3,1.3823916E-2,3.5E-2],"split_indices":[2,2,2,8,2,2,2,0,0,0,0,0,0,0,0],"split_type":[0,0,0,0,0,0,0,0,0,0,0,0,0,0,0],"sum_hessian":[6.075184E7,3.8420988E7,2.233085E7,2.2461786E7,1.5959204E7,1.8401824E7,3.929026E6,1.7436126E7,5.0256605E6,8.2804835E6,7.67872E6,9.394513E6,9.007311E6,3.3198028E6,6.092233E5],"tree_param":{"num_deleted":"0","num_feature":"12","num_nodes":"15","size_leaf_vector":"1"}},{"base_weights":[-1.5214306E-1,-2.8737423E-1,7.6195255E-2,-3.4842902E-1,-2.0197384E-1,8.784934E-3,3.171557E-1,-1.8203398E-2,-1.471514E-2,-1.2362528E-2,-7.665296E-3,-2.9050217E-3,3.377625E-3,1.232448E-2,3.5E-2],"categories":[],"categories_nodes":[],"categories_segments":[],"categories_sizes":[],"default_left":[0,0,0,0,0,0,0,0,0,0,0,0,0,0,0],"id":31,"left_children":[1,3,5,7,9,11,13,-1,-1,-1,-1,-1,-1,-1,-1],"loss_changes":[1.8628224E6,1.975545E5,3.644831E5,1.870075E4,3.4804938E4,6.892022E4,1.6079584E5,0E0,0E0,0E0,0E0,0E0,0E0,0E0,0E0],"parents":[2147483647,0,0,1,1,2,2,3,3,4,4,5,5,6,6],"right_children":[2,4,6,8,10,12,14,-1,-1,-1,-1,-1,-1,-1,-1],"split_conditions":[8E0,3E0,2.6E1,3E0,5E0,1.3E1,7.4E1,-1.8203398E-2,-1.471514E-2,-1.2362528E-2,-7.665296E-3,-2.9050217E-3,3.377625E-3,1.232448E-2,3.5E-2],"split_indices":[2,2,2,8,2,2,2,0,0,0,0,0,0,0,0],"split_type":[0,0,0,0,0,0,0,0,0,0,0,0,0,0,0],"sum_hessian":[6.0327572E7,3.788848E7,2.243909E7,2.2093388E7,1.5795093E7,1.753387E7,4.905219E6,1.7140814E7,4.952575E6,8.1826305E6,7.612462E6,8.200548E6,9.333323E6,4.2774635E6,6.277555E5],"tree_param":{"num_deleted":"0","num_feature":"12","num_nodes":"15","size_leaf_vector":"1"}},{"base_weights":[-1.493131E-1,-2.949334E-1,5.8238007E-2,-3.4577078E-1,-2.1303321E-1,-7.442584E-3,2.9500508E-1,-1.8078886E-2,-1.4560779E-2,-9.517375E-3,-1.47866E-2,-3.3808672E-3,3.0865835E-3,1.1524396E-2,3.5E-2],"categories":[0,1,2,3,4,22,23],"categories_nodes":[4],"categories_segments":[0],"categories_sizes":[7],"default_left":[0,0,0,0,1,0,0,0,0,0,0,0,0,0,0],"id":32,"left_children":[1,3,5,7,9,11,13,-1,-1,-1,-1,-1,-1,-1,-1],"loss_changes":[1.8089966E6,1.464525E5,3.837828E5,1.8716E4,2.527375E4,8.04187E4,1.575374E5,0E0,0E0,0E0,0E0,0E0,0E0,0E0,0E0],"parents":[2147483647,0,0,1,1,2,2,3,3,4,4,5,5,6,6],"right_children":[2,4,6,8,10,12,14,-1,-1,-1,-1,-1,-1,-1,-1],"split_conditions":[7E0,3E0,2.5E1,3E0,NaN,1.3E1,7.4E1,-1.8078886E-2,-1.4560779E-2,-9.517375E-3,-1.47866E-2,-3.3808672E-3,3.0865835E-3,1.1524396E-2,3.5E-2],"split_indices":[2,2,2,8,5,2,2,0,0,0,0,0,0,0,0],"split_type":[0,0,0,0,1,0,0,0,0,0,0,0,0,0,0],"sum_hessian":[5.9853656E7,3.5174684E7,2.4678972E7,2.1703078E7,1.3471607E7,1.9319602E7,5.359371E6,1.6827444E7,4.8756325E6,1.0571629E7,2.8999785E6,1.0331884E7,8.987717E6,4.7023185E6,6.570526E5],"tree_param":{"num_deleted":"0","num_feature":"12","num_nodes":"15","size_leaf_vector":"1"}},{"base_weights":[-1.4660999E-1,-2.9191235E-1,5.6874327E-2,-3.432466E-1,-2.0978673E-1,-7.23012E-3,2.8419593E-1,-1.7995799E-2,-1.4743223E-2,-9.358205E-3,-1.4644103E-2,-3.7345893E-3,2.5778345E-3,1.1119275E-2,3.5E-2],"categories":[0,1,2,3,4,22,23],"categories_nodes":[4],"categories_segments":[0],"categories_sizes":[7],"default_left":[0,0,0,0,1,0,0,0,0,0,0,0,0,0,0],"id":33,"left_children":[1,3,5,7,9,11,13,-1,-1,-1,-1,-1,-1,-1,-1],"loss_changes":[1.7559362E6,1.4607025E5,3.6053453E5,1.7195E4,2.5052625E4,7.653629E4,1.4519744E5,0E0,0E0,0E0,0E0,0E0,0E0,0E0,0E0],"parents":[2147483647,0,0,1,1,2,2,3,3,4,4,5,5,6,6],"right_children":[2,4,6,8,10,12,14,-1,-1,-1,-1,-1,-1,-1,-1],"split_conditions":[7E0,3E0,2.5E1,3E0,NaN,1.2E1,7.4E1,-1.7995799E-2,-1.4743223E-2,-9.358205E-3,-1.4644103E-2,-3.7345893E-3,2.5778345E-3,1.1119275E-2,3.5E-2],"split_indices":[2,2,2,9,5,2,2,0,0,0,0,0,0,0,0],"split_type":[0,0,0,0,1,0,0,0,0,0,0,0,0,0,0],"sum_hessian":[5.9388884E7,3.4647844E7,2.4741042E7,2.1320832E7,1.3327013E7,1.9298802E7,5.44224E6,1.585739E7,5.463442E6,1.0475162E7,2.851851E6,8.986365E6,1.0312436E7,4.7612835E6,6.809563E5],"tree_param":{"num_deleted":"0","num_feature":"12","num_nodes":"15","size_leaf_vector":"1"}},{"base_weights":[-1.4410144E-1,-2.889648E-1,5.5154998E-2,-3.4041867E-1,-2.071291E-1,-7.0268335E-3,2.7279884E-1,-1.7865783E-2,-1.4576691E-2,-9.232647E-3,-1.4482099E-2,-3.2484743E-3,2.9349253E-3,1.0762283E-2,3.3566188E-2],"categories":[0,1,2,3,4,22,23],"categories_nodes":[4],"categories_segments":[0],"categories_sizes":[7],"default_left":[0,0,0,0,1,0,0,0,0,0,0,0,0,0,0],"id":34,"left_children":[1,3,5,7,9,11,13,-1,-1,-1,-1,-1,-1,-1,-1],"loss_changes":[1.7024651E6,1.4380325E5,3.360206E5,1.731925E4,2.444975E4,7.354381E4,1.2654847E5,0E0,0E0,0E0,0E0,0E0,0E0,0E0,0E0],"parents":[2147483647,0,0,1,1,2,2,3,3,4,4,5,5,6,6],"right_children":[2,4,6,8,10,12,14,-1,-1,-1,-1,-1,-1,-1,-1],"split_conditions":[7E0,3E0,2.5E1,3E0,NaN,1.3E1,7.4E1,-1.7865783E-2,-1.4576691E-2,-9.232647E-3,-1.4482099E-2,-3.2484743E-3,2.9349253E-3,1.0762283E-2,3.3566188E-2],"split_indices":[2,2,2,9,5,2,2,0,0,0,0,0,0,0,0],"split_type":[0,0,0,0,1,0,0,0,0,0,0,0,0,0,0],"sum_hessian":[5.898032E7,3.41515E7,2.482882E7,2.0967976E7,1.3183526E7,1.9311452E7,5.5173685E6,1.5582053E7,5.3859225E6,1.0361186E7,2.8223398E6,1.026338E7,9.048071E6,4.821125E6,6.962436E5],"tree_param":{"num_deleted":"0","num_feature":"12","num_nodes":"15","size_leaf_vector":"1"}},{"base_weights":[-1.4151016E-1,-2.620076E-1,6.4958766E-2,-3.2027888E-1,-1.8141529E-1,1.3483206E-2,2.651148E-1,-1.0928792E-2,-1.7027617E-2,-1.6676987E-3,-1.0278849E-2,2.0280236E-3,-7.615745E-3,1.033078E-2,3.0507449E-2],"categories":[0,1,2,3,4,8,9,10,11,12,13,14,15,16,17,18,19,20,21,22,23,0,1,2,3,4,8,9,10,11,12,13,14,15,16,18,19,20,21,22,23,0,1,2,3,4,23],"categories_nodes":[3,4,5],"categories_segments":[0,21,41],"categories_sizes":[21,20,6],"default_left":[0,0,0,1,1,1,0,0,0,0,0,0,0,0,0],"id":35,"left_children":[1,3,5,7,9,11,13,-1,-1,-1,-1,-1,-1,-1,-1],"loss_changes":[1.4564801E6,1.7360825E5,2.2228822E5,4.42375E4,5.5495594E4,7.704325E4,8.908284E4,0E0,0E0,0E0,0E0,0E0,0E0,0E0,0E0],"parents":[2147483647,0,0,1,1,2,2,3,3,4,4,5,5,6,6],"right_children":[2,4,6,8,10,12,14,-1,-1,-1,-1,-1,-1,-1,-1],"split_conditions":[8E0,3E0,2.7E1,NaN,NaN,NaN,7.4E1,-1.0928792E-2,-1.7027617E-2,-1.6676987E-3,-1.0278849E-2,2.0280236E-3,-7.615745E-3,1.033078E-2,3.0507449E-2],"split_indices":[8,8,8,5,5,5,8,0,0,0,0,0,0,0,0],"split_type":[0,0,0,1,1,1,0,0,0,0,0,0,0,0,0],"sum_hessian":[5.8542588E7,3.6967796E7,2.1574792E7,2.1455008E7,1.5512791E7,1.71613E7,4.4134925E6,3.5659945E6,1.7889012E7,2.176336E6,1.3336454E7,1.475207E7,2.4092288E6,3.773681E6,6.3981156E5],"tree_param":{"num_deleted":"0","num_feature":"12","num_nodes":"15","size_leaf_vector":"1"}},{"base_weights":[-1.3912725E-1,-2.8322092E-1,5.342544E-2,-3.3541247E-1,-2.0122498E-1,-3.4353319E-3,2.659551E-1,-1.769237E-2,-1.4698192E-2,-8.267215E-3,-1.2712389E-2,-3.092679E-3,2.974905E-3,1.0466154E-2,3.053214E-2],"categories":[0,1,2,3,4,15,19,20,21,22,23],"categories_nodes":[4],"categories_segments":[0],"categories_sizes":[11],"default_left":[0,0,0,0,1,0,0,0,0,0,0,0,0,0,0],"id":36,"left_children":[1,3,5,7,9,11,13,-1,-1,-1,-1,-1,-1,-1,-1],"loss_changes":[1.6139062E6,1.4238075E5,3.008757E5,1.5534E4,2.4618969E4,7.221411E4,1.0258234E5,0E0,0E0,0E0,0E0,0E0,0E0,0E0,0E0],"parents":[2147483647,0,0,1,1,2,2,3,3,4,4,5,5,6,6],"right_children":[2,4,6,8,10,12,14,-1,-1,-1,-1,-1,-1,-1,-1],"split_conditions":[7E0,3E0,2.6E1,2E0,NaN,1.3E1,7.4E1,-1.769237E-2,-1.4698192E-2,-8.267215E-3,-1.2712389E-2,-3.092679E-3,2.974905E-3,1.0466154E-2,3.053214E-2],"split_indices":[2,2,2,2,5,2,2,0,0,0,0,0,0,0,0],"split_type":[0,0,0,0,1,0,0,0,0,0,0,0,0,0,0],"sum_hessian":[5.816795E7,3.327051E7,2.4897444E7,2.033011E7,1.2940399E7,1.9642292E7,5.255152E6,1.4071558E7,6.258553E6,7.717768E6,5.2226305E6,1.0186566E7,9.455726E6,4.5135755E6,7.4157656E5],"tree_param":{"num_deleted":"0","num_feature":"12","num_nodes":"15","size_leaf_vector":"1"}},{"base_weights":[-1.3675222E-1,-2.8025526E-1,5.159562E-2,-3.326991E-1,-1.9833766E-1,-8.883917E-3,2.368428E-1,-1.7472412E-2,-1.3784929E-2,-8.7926155E-3,-1.4083772E-2,-3.4388204E-3,2.2186511E-3,9.432414E-3,2.8590161E-2],"categories":[0,1,2,3,4,22,23],"categories_nodes":[4],"categories_segments":[0],"categories_sizes":[7],"default_left":[0,0,0,0,1,0,0,0,0,0,0,0,0,0,0],"id":37,"left_children":[1,3,5,7,9,11,13,-1,-1,-1,-1,-1,-1,-1,-1],"loss_changes":[1.5603934E6,1.40767E5,2.7969875E5,1.907225E4,2.396575E4,6.0031383E4,9.9192125E4,0E0,0E0,0E0,0E0,0E0,0E0,0E0,0E0],"parents":[2147483647,0,0,1,1,2,2,3,3,4,4,5,5,6,6],"right_children":[2,4,6,8,10,12,14,-1,-1,-1,-1,-1,-1,-1,-1],"split_conditions":[7E0,3E0,2.4E1,3E0,NaN,1.2E1,7.4E1,-1.7472412E-2,-1.3784929E-2,-8.7926155E-3,-1.4083772E-2,-3.4388204E-3,2.2186511E-3,9.432414E-3,2.8590161E-2],"split_indices":[2,2,2,8,5,2,2,0,0,0,0,0,0,0,0],"split_type":[0,0,0,0,1,0,0,0,0,0,0,0,0,0,0],"sum_hessian":[5.7731436E7,3.2766498E7,2.4964938E7,1.9977106E7,1.2789393E7,1.8820438E7,6.1445E6,1.5440137E7,4.536969E6,1.0071899E7,2.7174938E6,8.858365E6,9.962073E6,5.371625E6,7.728746E5],"tree_param":{"num_deleted":"0","num_feature":"12","num_nodes":"15","size_leaf_vector":"1"}},{"base_weights":[-1.343333E-1,-2.62736E-1,4.628578E-2,-3.1204498E-1,-1.8498962E-1,-8.950187E-3,2.0686592E-1,-1.0394299E-2,-1.664874E-2,-1.8970649E-3,-1.0515118E-2,1.1403929E-3,-7.183136E-3,8.337135E-3,2.6104072E-2],"categories":[0,1,2,3,4,8,9,10,11,12,13,14,15,16,17,18,19,20,21,22,23,0,1,2,3,4,8,9,10,11,12,13,14,15,16,18,19,20,21,22,23,0,1,2,3,4,22,23],"categories_nodes":[3,4,5],"categories_segments":[0,21,41],"categories_sizes":[21,20,7],"default_left":[0,0,0,1,1,1,0,0,0,0,0,0,0,0,0],"id":38,"left_children":[1,3,5,7,9,11,13,-1,-1,-1,-1,-1,-1,-1,-1],"loss_changes":[1.3302044E6,1.28517E5,2.1138748E5,4.4720125E4,4.8426906E4,7.586392E4,7.714475E4,0E0,0E0,0E0,0E0,0E0,0E0,0E0,0E0],"parents":[2147483647,0,0,1,1,2,2,3,3,4,4,5,5,6,6],"right_children":[2,4,6,8,10,12,14,-1,-1,-1,-1,-1,-1,-1,-1],"split_conditions":[7E0,3E0,2.3E1,NaN,NaN,NaN,7.4E1,-1.0394299E-2,-1.664874E-2,-1.8970649E-3,-1.0515118E-2,1.1403929E-3,-7.183136E-3,8.337135E-3,2.6104072E-2],"split_indices":[8,8,8,5,5,5,8,0,0,0,0,0,0,0,0],"split_type":[0,0,0,1,1,1,0,0,0,0,0,0,0,0,0],"sum_hessian":[5.7356212E7,3.3523936E7,2.3832276E7,2.0513612E7,1.3010322E7,1.7732644E7,6.099631E6,3.4323328E6,1.708128E7,1.9106802E6,1.1099642E7,1.4349741E7,3.382904E6,5.41089E6,6.887409E5],"tree_param":{"num_deleted":"0","num_feature":"12","num_nodes":"15","size_leaf_vector":"1"}},{"base_weights":[-1.3184668E-1,-2.5954616E-1,4.5206245E-2,-3.0895108E-1,-1.821058E-1,-1.4933039E-2,1.8451755E-1,-1.019015E-2,-1.6510174E-2,-1.8124344E-3,-1.0372615E-2,5.371891E-4,-8.857769E-3,7.5092404E-3,2.4888322E-2],"categories":[0,1,2,3,4,8,9,10,11,12,13,14,15,16,17,18,19,20,21,22,23,0,1,2,3,4,8,9,10,11,12,13,14,15,16,18,19,20,21,22,23,0,1,2,3,4,23],"categories_nodes":[3,4,5],"categories_segments":[0,21,41],"categories_sizes":[21,20,6],"default_left":[0,0,0,1,1,1,0,0,0,0,0,0,0,0,0],"id":39,"left_children":[1,3,5,7,9,11,13,-1,-1,-1,-1,-1,-1,-1,-1],"loss_changes":[1.2889521E6,1.267185E5,2.0013878E5,4.518575E4,4.7691594E4,6.950076E4,7.7465266E4,0E0,0E0,0E0,0E0,0E0,0E0,0E0,0E0],"parents":[2147483647,0,0,1,1,2,2,3,3,4,4,5,5,6,6],"right_children":[2,4,6,8,10,12,14,-1,-1,-1,-1,-1,-1,-1,-1],"split_conditions":[7E0,3E0,2.1E1,NaN,NaN,NaN,7.4E1,-1.019015E-2,-1.6510174E-2,-1.8124344E-3,-1.0372615E-2,5.371891E-4,-8.857769E-3,7.5092404E-3,2.4888322E-2],"split_indices":[8,8,8,5,5,5,8,0,0,0,0,0,0,0,0],"split_type":[0,0,0,1,1,1,0,0,0,0,0,0,0,0,0],"sum_hessian":[5.7009156E7,3.3120782E7,2.3888376E7,2.0220582E7,1.2900199E7,1.6685441E7,7.2029355E6,3.3997995E6,1.6820784E7,1.9098612E6,1.0990338E7,1.4405341E7,2.2801002E6,6.4914595E6,7.1147606E5],"tree_param":{"num_deleted":"0","num_feature":"12","num_nodes":"15","size_leaf_vector":"1"}},{"base_weights":[-1.2912467E-1,-2.7169445E-1,5.0125215E-2,-3.252427E-1,-1.8930998E-1,-6.5600183E-3,2.184945E-1,-1.7587988E-2,-1.4448282E-2,-7.6600066E-3,-1.2160176E-2,-3.1643303E-3,2.1495884E-3,8.77303E-3,2.5330245E-2],"categories":[0,1,2,3,4,15,19,20,21,22,23],"categories_nodes":[4],"categories_segments":[0],"categories_sizes":[11],"default_left":[0,0,0,0,1,0,0,0,0,0,0,0,0,0,0],"id":40,"left_children":[1,3,5,7,9,11,13,-1,-1,-1,-1,-1,-1,-1,-1],"loss_changes":[1.4470769E6,1.3913625E5,2.3941583E5,1.83875E4,2.417875E4,5.2752273E4,7.833781E4,0E0,0E0,0E0,0E0,0E0,0E0,0E0,0E0],"parents":[2147483647,0,0,1,1,2,2,3,3,4,4,5,5,6,6],"right_children":[2,4,6,8,10,12,14,-1,-1,-1,-1,-1,-1,-1,-1],"split_conditions":[7E0,3E0,2.4E1,2E0,NaN,1.2E1,7.4E1,-1.7587988E-2,-1.4448282E-2,-7.6600066E-3,-1.2160176E-2,-3.1643303E-3,2.1495884E-3,8.77303E-3,2.5330245E-2],"split_indices":[2,2,2,8,5,2,2,0,0,0,0,0,0,0,0],"split_type":[0,0,0,0,1,0,0,0,0,0,0,0,0,0,0],"sum_hessian":[5.6624596E7,3.1539256E7,2.5085342E7,1.9114932E7,1.2424324E7,1.8767014E7,6.318328E6,1.1042958E7,8.071973E6,7.43962E6,4.984704E6,8.750031E6,1.0016983E7,5.49723E6,8.21098E5],"tree_param":{"num_deleted":"0","num_feature":"12","num_nodes":"15","size_leaf_vector":"1"}},{"base_weights":[-1.2682264E-1,-2.5340015E-1,4.3399785E-2,-3.030753E-1,-1.7650697E-1,-1.0793008E-2,1.805711E-1,-1.6552892E-2,-1.3273603E-2,-1.024232E-2,-6.7087174E-3,-3.0168174E-3,1.9406517E-3,7.3280144E-3,2.2805635E-2],"categories":[],"categories_nodes":[],"categories_segments":[],"categories_sizes":[],"default_left":[0,0,0,0,0,0,0,0,0,0,0,0,0,0,0],"id":41,"left_children":[1,3,5,7,9,11,13,-1,-1,-1,-1,-1,-1,-1,-1],"loss_changes":[1.21172E6,1.23199625E5,1.7828986E5,2.0618375E4,1.5186656E4,4.225172E4,6.365114E4,0E0,0E0,0E0,0E0,0E0,0E0,0E0,0E0],"parents":[2147483647,0,0,1,1,2,2,3,3,4,4,5,5,6,6],"right_children":[2,4,6,8,10,12,14,-1,-1,-1,-1,-1,-1,-1,-1],"split_conditions":[7E0,3E0,2.2E1,2E0,5E0,1.2E1,7.4E1,-1.6552892E-2,-1.3273603E-2,-1.024232E-2,-6.7087174E-3,-3.0168174E-3,1.9406517E-3,7.3280144E-3,2.2805635E-2],"split_indices":[8,8,8,9,8,8,8,0,0,0,0,0,0,0,0],"split_type":[0,0,0,0,0,0,0,0,0,0,0,0,0,0,0],"sum_hessian":[5.6237876E7,3.2253872E7,2.3984006E7,1.9594968E7,1.2658905E7,1.7191926E7,6.792079E6,1.1234672E7,8.360295E6,7.582695E6,5.0762105E6,8.601399E6,8.590528E6,6.0458285E6,7.462506E5],"tree_param":{"num_deleted":"0","num_feature":"12","num_nodes":"15","size_leaf_vector":"1"}},{"base_weights":[-1.2471201E-1,-2.503545E-1,4.186621E-2,-3.0023465E-1,-1.7364171E-1,-7.947165E-3,1.8067904E-1,-9.640063E-3,-1.6107354E-2,-1.3710477E-3,-9.965045E-3,1.0980804E-3,-6.8574892E-3,7.3275208E-3,2.1585464E-2],"categories":[0,1,2,3,4,8,9,10,11,12,13,14,15,16,17,18,19,20,21,22,23,0,1,2,3,4,8,9,10,11,12,13,14,15,16,18,19,20,21,22,23,0,1,2,3,4,22,23],"categories_nodes":[3,4,5],"categories_segments":[0,21,41],"categories_sizes":[21,20,7],"default_left":[0,0,0,1,1,1,0,0,0,0,0,0,0,0,0],"id":42,"left_children":[1,3,5,7,9,11,13,-1,-1,-1,-1,-1,-1,-1,-1],"loss_changes":[1.1701311E6,1.2195025E5,1.662191E5,4.5464625E4,4.7114844E4,6.836014E4,5.4386812E4,0E0,0E0,0E0,0E0,0E0,0E0,0E0,0E0],"parents":[2147483647,0,0,1,1,2,2,3,3,4,4,5,5,6,6],"right_children":[2,4,6,8,10,12,14,-1,-1,-1,-1,-1,-1,-1,-1],"split_conditions":[7E0,3E0,2.3E1,NaN,NaN,NaN,7.4E1,-9.640063E-3,-1.6107354E-2,-1.3710477E-3,-9.965045E-3,1.0980804E-3,-6.8574892E-3,7.3275208E-3,2.1585464E-2],"split_indices":[8,8,8,5,5,5,8,0,0,0,0,0,0,0,0],"split_type":[0,0,0,1,1,1,0,0,0,0,0,0,0,0,0],"sum_hessian":[5.590875E7,3.1870366E7,2.4038388E7,1.93128E7,1.2557565E7,1.7690208E7,6.34818E6,3.2717752E6,1.6041025E7,1.874663E6,1.0682902E7,1.4364913E7,3.325295E6,5.588413E6,7.597669E5],"tree_param":{"num_deleted":"0","num_feature":"12","num_nodes":"15","size_leaf_vector":"1"}},{"base_weights":[-1.2254697E-1,-2.754493E-1,3.4493227E-2,-3.1769612E-1,-1.9684592E-1,-1.9102644E-2,1.9229746E-1,-1.7237308E-2,-1.4056175E-2,-8.073805E-3,-1.2454659E-2,-3.853156E-3,1.545924E-3,6.9997916E-3,1.8809786E-2],"categories":[0,1,2,3,4,15,19,20,21,22,23],"categories_nodes":[4],"categories_segments":[0],"categories_sizes":[11],"default_left":[0,0,0,0,1,0,0,0,0,0,0,0,0,0,0],"id":43,"left_children":[1,3,5,7,9,11,13,-1,-1,-1,-1,-1,-1,-1,-1],"loss_changes":[1.3337735E6,9.345925E4,2.317608E5,1.8109E4,1.8181469E4,5.9304676E4,6.682034E4,0E0,0E0,0E0,0E0,0E0,0E0,0E0,0E0],"parents":[2147483647,0,0,1,1,2,2,3,3,4,4,5,5,6,6],"right_children":[2,4,6,8,10,12,14,-1,-1,-1,-1,-1,-1,-1,-1],"split_conditions":[6E0,3E0,2.3E1,2E0,NaN,1.1E1,5.3E1,-1.7237308E-2,-1.4056175E-2,-8.073805E-3,-1.2454659E-2,-3.853156E-3,1.545924E-3,6.9997916E-3,1.8809786E-2],"split_indices":[2,2,2,8,5,2,2,0,0,0,0,0,0,0,0],"split_type":[0,0,0,0,1,0,0,0,0,0,0,0,0,0,0],"sum_hessian":[5.5546544E7,2.8144056E7,2.7402488E7,1.8305456E7,9.838601E6,2.0455188E7,6.947301E6,1.0522642E7,7.7828145E6,5.866894E6,3.971707E6,9.475609E6,1.0979578E7,5.408965E6,1.5383361E6],"tree_param":{"num_deleted":"0","num_feature":"12","num_nodes":"15","size_leaf_vector":"1"}},{"base_weights":[-1.2021801E-1,-2.7243578E-1,3.36882E-2,-3.1481805E-1,-1.9405277E-1,-1.829126E-2,1.8543361E-1,-1.6671492E-2,-1.3108295E-2,-7.9515455E-3,-1.2300947E-2,-3.7748653E-3,1.5404293E-3,6.7953677E-3,1.7944206E-2],"categories":[0,1,2,3,4,15,19,20,21,22,23],"categories_nodes":[4],"categories_segments":[0],"categories_sizes":[11],"default_left":[0,0,0,0,1,0,0,0,0,0,0,0,0,0,0],"id":44,"left_children":[1,3,5,7,9,11,13,-1,-1,-1,-1,-1,-1,-1,-1],"loss_changes":[1.2932065E6,9.21955E4,2.1650184E5,1.765175E4,1.7725844E4,5.742593E4,6.0160688E4,0E0,0E0,0E0,0E0,0E0,0E0,0E0,0E0],"parents":[2147483647,0,0,1,1,2,2,3,3,4,4,5,5,6,6],"right_children":[2,4,6,8,10,12,14,-1,-1,-1,-1,-1,-1,-1,-1],"split_conditions":[6E0,3E0,2.3E1,3E0,NaN,1.1E1,5.3E1,-1.6671492E-2,-1.3108295E-2,-7.9515455E-3,-1.2300947E-2,-3.7748653E-3,1.5404293E-3,6.7953677E-3,1.7944206E-2],"split_indices":[2,2,2,9,5,2,2,0,0,0,0,0,0,0,0],"split_type":[0,0,0,0,1,0,0,0,0,0,0,0,0,0,0],"sum_hessian":[5.5200916E7,2.7752688E7,2.7448228E7,1.8012954E7,9.739733E6,2.044494E7,7.003288E6,1.330856E7,4.704394E6,5.818464E6,3.9212692E6,9.44297E6,1.1001971E7,5.447761E6,1.5555268E6],"tree_param":{"num_deleted":"0","num_feature":"12","num_nodes":"15","size_leaf_vector":"1"}},{"base_weights":[-1.17937826E-1,-2.6923376E-1,3.2706067E-2,-3.1187135E-1,-1.9102788E-1,-3.0374762E-2,1.5152974E-1,-1.696437E-2,-1.374988E-2,-5.377178E-3,-1.0647397E-2,-3.3686854E-4,-7.4356543E-3,5.660021E-3,1.7225616E-2],"categories":[0,1,2,3,4,8,9,10,11,12,13,14,15,18,19,20,21,22,23,0,1,2,3,4,22,23],"categories_nodes":[4,5],"categories_segments":[0,19],"categories_sizes":[19,7],"default_left":[0,0,0,0,1,1,0,0,0,0,0,0,0,0,0],"id":45,"left_children":[1,3,5,7,9,11,13,-1,-1,-1,-1,-1,-1,-1,-1],"loss_changes":[1.2515052E6,9.135175E4,2.0623434E5,1.792325E4,1.7688844E4,5.027421E4,7.057709E4,0E0,0E0,0E0,0E0,0E0,0E0,0E0,0E0],"parents":[2147483647,0,0,1,1,2,2,3,3,4,4,5,5,6,6],"right_children":[2,4,6,8,10,12,14,-1,-1,-1,-1,-1,-1,-1,-1],"split_conditions":[6E0,3E0,1.9E1,2E0,NaN,NaN,5.3E1,-1.696437E-2,-1.374988E-2,-5.377178E-3,-1.0647397E-2,-3.3686854E-4,-7.4356543E-3,5.660021E-3,1.7225616E-2],"split_indices":[2,2,2,8,5,5,2,0,0,0,0,0,0,0,0],"split_type":[0,0,0,0,1,1,0,0,0,0,0,0,0,0,0],"sum_hessian":[5.49103E7,2.739586E7,2.7514442E7,1.7729686E7,9.666174E6,1.7972986E7,9.541456E6,1.0168954E7,7.560732E6,2.0101934E6,7.655981E6,1.4980682E7,2.9923032E6,7.9603995E6,1.5810561E6],"tree_param":{"num_deleted":"0","num_feature":"12","num_nodes":"15","size_leaf_vector":"1"}},{"base_weights":[-1.1558744E-1,-2.4940415E-1,2.6703198E-2,-2.8894666E-1,-1.7634022E-1,-4.2078223E-2,1.1971942E-1,-1.5904505E-2,-1.2512992E-2,-1.0346054E-2,-7.753253E-3,-3.9880183E-3,-9.936434E-5,4.6106637E-3,1.5246572E-2],"categories":[],"categories_nodes":[],"categories_segments":[],"categories_sizes":[],"default_left":[0,0,0,0,0,0,0,0,0,0,0,0,0,0,0],"id":46,"left_children":[1,3,5,7,9,11,13,-1,-1,-1,-1,-1,-1,-1,-1],"loss_changes":[1.03945506E6,8.128E4,1.692705E5,2.05805E4,6.4274688E3,2.2978398E4,5.729928E4,0E0,0E0,0E0,0E0,0E0,0E0,0E0,0E0],"parents":[2147483647,0,0,1,1,2,2,3,3,4,4,5,5,6,6],"right_children":[2,4,6,8,10,12,14,-1,-1,-1,-1,-1,-1,-1,-1],"split_conditions":[6E0,3E0,1.6E1,2E0,4E0,1E1,5.3E1,-1.5904505E-2,-1.2512992E-2,-1.0346054E-2,-7.753253E-3,-3.9880183E-3,-9.936434E-5,4.6106637E-3,1.5246572E-2],"split_indices":[8,8,8,9,8,8,8,0,0,0,0,0,0,0,0],"split_type":[0,0,0,0,0,0,0,0,0,0,0,0,0,0,0],"sum_hessian":[5.4590748E7,2.8133088E7,2.6457658E7,1.825396E7,9.879128E6,1.5210305E7,1.1247353E7,1.0411099E7,7.8428605E6,4.0531422E6,5.825986E6,7.8406995E6,7.3696055E6,9.792982E6,1.4543709E6],"tree_param":{"num_deleted":"0","num_feature":"12","num_nodes":"15","size_leaf_vector":"1"}},{"base_weights":[-1.13441594E-1,-2.6340523E-1,3.2047193E-2,-3.0662274E-1,-1.8483296E-1,-4.659391E-2,1.1786074E-1,-1.671911E-2,-1.3477998E-2,-1.0343234E-2,-6.2529272E-3,-3.9637997E-3,-3.960698E-4,4.4525056E-3,1.606862E-2],"categories":[],"categories_nodes":[],"categories_segments":[],"categories_sizes":[],"default_left":[0,0,0,0,0,0,0,0,0,0,0,0,0,0,0],"id":47,"left_children":[1,3,5,7,9,11,13,-1,-1,-1,-1,-1,-1,-1,-1],"loss_changes":[1.1834685E6,9.0701E4,1.8579978E5,1.772925E4,1.2482281E4,1.815773E4,7.71943E4,0E0,0E0,0E0,0E0,0E0,0E0,0E0,0E0],"parents":[2147483647,0,0,1,1,2,2,3,3,4,4,5,5,6,6],"right_children":[2,4,6,8,10,12,14,-1,-1,-1,-1,-1,-1,-1,-1],"split_conditions":[6E0,3E0,1.5E1,2E0,6E0,1E1,5.3E1,-1.671911E-2,-1.3477998E-2,-1.0343234E-2,-6.2529272E-3,-3.9637997E-3,-3.960698E-4,4.4525056E-3,1.606862E-2],"split_indices":[2,2,2,8,8,2,2,0,0,0,0,0,0,0,0],"split_type":[0,0,0,0,0,0,0,0,0,0,0,0,0,0,0],"sum_hessian":[5.4242704E7,2.6710578E7,2.7532124E7,1.7232238E7,9.478341E6,1.4366449E7,1.3165675E7,9.852704E6,7.379534E6,6.925669E6,2.5526725E6,7.786278E6,6.580171E6,1.1532981E7,1.632694E6],"tree_param":{"num_deleted":"0","num_feature":"12","num_nodes":"15","size_leaf_vector":"1"}},{"base_weights":[-1.1134742E-1,-2.6033896E-1,3.0948903E-2,-3.036922E-1,-1.8204245E-1,-3.1668287E-2,1.3294978E-1,-1.6588366E-2,-1.3313684E-2,-1.0468114E-2,-6.69173E-3,-3.498102E-3,7.1058905E-4,4.9927374E-3,1.545602E-2],"categories":[],"categories_nodes":[],"categories_segments":[],"categories_sizes":[],"default_left":[0,0,0,0,0,0,0,0,0,0,0,0,0,0,0],"id":48,"left_children":[1,3,5,7,9,11,13,-1,-1,-1,-1,-1,-1,-1,-1],"loss_changes":[1.14366E6,8.9449E4,1.7622933E5,1.7817625E4,1.23685E4,3.003719E4,6.119178E4,0E0,0E0,0E0,0E0,0E0,0E0,0E0,0E0],"parents":[2147483647,0,0,1,1,2,2,3,3,4,4,5,5,6,6],"right_children":[2,4,6,8,10,12,14,-1,-1,-1,-1,-1,-1,-1,-1],"split_conditions":[6E0,3E0,1.8E1,2E0,5E0,1.1E1,5.3E1,-1.6588366E-2,-1.3313684E-2,-1.0468114E-2,-6.69173E-3,-3.498102E-3,7.1058905E-4,4.9927374E-3,1.545602E-2],"split_indices":[2,2,2,8,8,2,2,0,0,0,0,0,0,0,0],"split_type":[0,0,0,0,0,0,0,0,0,0,0,0,0,0,0],"sum_hessian":[5.394379E7,2.6351948E7,2.7591844E7,1.6960706E7,9.391242E6,1.7096498E7,1.0495347E7,9.690174E6,7.2705325E6,5.994245E6,3.3969972E6,9.318674E6,7.7778225E6,8.835525E6,1.6598215E6],"tree_param":{"num_deleted":"0","num_feature":"12","num_nodes":"15","size_leaf_vector":"1"}},{"base_weights":[-1.0892299E-1,-2.401669E-1,2.5149167E-2,-3.008855E-1,-1.9227873E-1,-3.9014753E-2,1.09979E-1,-9.847346E-3,-1.6185401E-2,-2.9246046E-3,-1.1014138E-2,-4.965699E-4,-8.424195E-3,7.648766E-3,1.6847414E-4],"categories":[0,1,2,3,4,8,9,10,11,12,13,14,15,16,17,18,19,20,21,22,23,0,1,2,3,4,8,9,10,11,12,13,14,15,16,18,19,20,21,22,23,0,1,2,3,4,22,23,0,1,2,3,4,5,9,22,23],"categories_nodes":[3,4,5,6],"categories_segments":[0,21,41,48],"categories_sizes":[21,20,7,9],"default_left":[0,0,0,1,1,1,1,0,0,0,0,0,0,0,0],"id":49,"left_children":[1,3,5,7,9,11,13,-1,-1,-1,-1,-1,-1,-1,-1],"loss_changes":[9.43866E5,7.8816625E4,1.444268E5,2.8351875E4,5.677625E4,5.6885266E4,5.237917E4,0E0,0E0,0E0,0E0,0E0,0E0,0E0,0E0],"parents":[2147483647,0,0,1,1,2,2,3,3,4,4,5,5,6,6],"right_children":[2,4,6,8,10,12,14,-1,-1,-1,-1,-1,-1,-1,-1],"split_conditions":[6E0,2E0,1.6E1,NaN,NaN,NaN,NaN,-9.847346E-3,-1.6185401E-2,-2.9246046E-3,-1.1014138E-2,-4.965699E-4,-8.424195E-3,7.648766E-3,1.6847414E-4],"split_indices":[8,8,8,5,5,5,5,0,0,0,0,0,0,0,0],"split_type":[0,0,0,1,1,1,1,0,0,0,0,0,0,0,0],"sum_hessian":[5.3640476E7,2.7106138E7,2.6534338E7,1.1951956E7,1.5154182E7,1.5107369E7,1.142697E7,2.1518742E6,9.800081E6,2.6230082E6,1.2531174E7,1.2336219E7,2.77115E6,8.1428885E6,3.284081E6],"tree_param":{"num_deleted":"0","num_feature":"12","num_nodes":"15","size_leaf_vector":"1"}},{"base_weights":[-1.0705368E-1,-2.5453448E-1,3.0254774E-2,-2.9819423E-1,-1.7639485E-1,-1.793859E-2,1.5123682E-1,-1.5889905E-2,-1.2177018E-2,-1.015691E-2,-6.4874846E-3,-3.3249543E-3,1.2385445E-3,6.156651E-3,1.7673047E-2],"categories":[],"categories_nodes":[],"categories_segments":[],"categories_sizes":[],"default_left":[0,0,0,0,0,0,0,0,0,0,0,0,0,0,0],"id":50,"left_children":[1,3,5,7,9,11,13,-1,-1,-1,-1,-1,-1,-1,-1],"loss_changes":[1.080216E6,8.774125E4,1.6106381E5,1.767825E4,1.1500344E4,4.09714E4,4.4723656E4,0E0,0E0,0E0,0E0,0E0,0E0,0E0,0E0],"parents":[2147483647,0,0,1,1,2,2,3,3,4,4,5,5,6,6],"right_children":[2,4,6,8,10,12,14,-1,-1,-1,-1,-1,-1,-1,-1],"split_conditions":[6E0,3E0,2.2E1,3E0,5E0,1.1E1,7.4E1,-1.5889905E-2,-1.2177018E-2,-1.015691E-2,-6.4874846E-3,-3.3249543E-3,1.2385445E-3,6.156651E-3,1.7673047E-2],"split_indices":[2,2,2,9,8,2,2,0,0,0,0,0,0,0,0],"split_type":[0,0,0,0,0,0,0,0,0,0,0,0,0,0,0],"sum_hessian":[5.3343052E7,2.571885E7,2.7624202E7,1.6499765E7,9.219086E6,1.9754836E7,7.869365E6,1.2143862E7,4.355903E6,5.8595775E6,3.359508E6,9.24421E6,1.0510626E7,6.9091745E6,9.601908E5],"tree_param":{"num_deleted":"0","num_feature":"12","num_nodes":"15","size_leaf_vector":"1"}},{"base_weights":[-1.0499514E-1,-2.5146732E-1,2.9356359E-2,-2.951544E-1,-1.7366832E-1,-3.7480317E-2,1.11322224E-1,-1.6259052E-2,-1.2944142E-2,-1.0011598E-2,-6.3760537E-3,-3.6490157E-3,-7.10017E-5,4.187383E-3,1.41434325E-2],"categories":[],"categories_nodes":[],"categories_segments":[],"categories_sizes":[],"default_left":[0,0,0,0,0,0,0,0,0,0,0,0,0,0,0],"id":51,"left_children":[1,3,5,7,9,11,13,-1,-1,-1,-1,-1,-1,-1,-1],"loss_changes":[1.04396456E6,8.6262625E4,1.515854E5,1.77015E4,1.1188125E4,1.9511457E4,5.8790125E4,0E0,0E0,0E0,0E0,0E0,0E0,0E0,0E0],"parents":[2147483647,0,0,1,1,2,2,3,3,4,4,5,5,6,6],"right_children":[2,4,6,8,10,12,14,-1,-1,-1,-1,-1,-1,-1,-1],"split_conditions":[6E0,3E0,1.6E1,2E0,5E0,1E1,5.3E1,-1.6259052E-2,-1.2944142E-2,-1.0011598E-2,-6.3760537E-3,-3.6490157E-3,-7.10017E-5,4.187383E-3,1.41434325E-2],"split_indices":[2,2,2,9,8,2,2,0,0,0,0,0,0,0,0],"split_type":[0,0,0,0,0,0,0,0,0,0,0,0,0,0,0],"sum_hessian":[5.3050324E7,2.5380304E7,2.767002E7,1.6253404E7,9.1269E6,1.5241656E7,1.2428364E7,8.892184E6,7.361221E6,5.792548E6,3.334352E6,7.6804955E6,7.5611605E6,1.0707267E7,1.7210966E6],"tree_param":{"num_deleted":"0","num_feature":"12","num_nodes":"15","size_leaf_vector":"1"}},{"base_weights":[-1.0286246E-1,-2.4836507E-1,2.8792964E-2,-3.1440446E-1,-1.966358E-1,-1.2896608E-2,1.5388712E-1,-1.6707636E-2,-1.3951398E-2,-8.029248E-3,-1.2389137E-2,4.977552E-3,-1.7919325E-3,6.21777E-3,1.6549325E-2],"categories":[0,1,2,3,4,15,19,20,21,22,23,0,1,2,3,4,8,9,10,11,12,13,14,15,18,19,20,21,22,23],"categories_nodes":[4,5],"categories_segments":[0,11],"categories_sizes":[11,19],"default_left":[0,0,0,0,1,1,0,0,0,0,0,0,0,0,0],"id":52,"left_children":[1,3,5,7,9,11,13,-1,-1,-1,-1,-1,-1,-1,-1],"loss_changes":[1.01167656E6,8.5700625E4,1.4459056E5,7.698125E3,2.593875E4,5.3646496E4,3.62455E4,0E0,0E0,0E0,0E0,0E0,0E0,0E0,0E0],"parents":[2147483647,0,0,1,1,2,2,3,3,4,4,5,5,6,6],"right_children":[2,4,6,8,10,12,14,-1,-1,-1,-1,-1,-1,-1,-1],"split_conditions":[6E0,2E0,2.4E1,2E0,NaN,NaN,7.4E1,-1.6707636E-2,-1.3951398E-2,-8.029248E-3,-1.2389137E-2,4.977552E-3,-1.7919325E-3,6.21777E-3,1.6549325E-2],"split_indices":[2,2,2,8,5,5,2,0,0,0,0,0,0,0,0],"split_type":[0,0,0,0,1,1,0,0,0,0,0,0,0,0,0],"sum_hessian":[5.281194E7,2.5086692E7,2.7725248E7,1.1019196E7,1.4067495E7,2.0794994E7,6.9302535E6,7.071601E6,3.947595E6,8.2514645E6,5.8160305E6,3.5237508E6,1.7271244E7,5.939783E6,9.904707E5],"tree_param":{"num_deleted":"0","num_feature":"12","num_nodes":"15","size_leaf_vector":"1"}},{"base_weights":[-1.00977324E-1,-2.4528302E-1,2.7857678E-2,-3.1152993E-1,-1.936447E-1,-4.162175E-2,1.0071441E-1,-1.6574247E-2,-1.3792385E-2,-8.504751E-3,-1.356934E-2,-9.087661E-4,-7.943875E-3,3.3894577E-3,1.1245946E-2],"categories":[0,1,2,3,4,22,23,0,1,2,3,4,22,23],"categories_nodes":[4,5],"categories_segments":[0,7],"categories_sizes":[7,7],"default_left":[0,0,0,0,1,1,0,0,0,0,0,0,0,0,0],"id":53,"left_children":[1,3,5,7,9,11,13,-1,-1,-1,-1,-1,-1,-1,-1],"loss_changes":[9.767598E5,8.4772625E4,1.4050553E5,7.729125E3,2.5495625E4,3.9060055E4,5.5408344E4,0E0,0E0,0E0,0E0,0E0,0E0,0E0,0E0],"parents":[2147483647,0,0,1,1,2,2,3,3,4,4,5,5,6,6],"right_children":[2,4,6,8,10,12,14,-1,-1,-1,-1,-1,-1,-1,-1],"split_conditions":[6E0,2E0,1.5E1,2E0,NaN,NaN,4E1,-1.6574247E-2,-1.3792385E-2,-8.504751E-3,-1.356934E-2,-9.087661E-4,-7.943875E-3,3.3894577E-3,1.1245946E-2],"split_indices":[2,2,2,8,5,5,2,0,0,0,0,0,0,0,0],"split_type":[0,0,0,0,1,1,0,0,0,0,0,0,0,0,0],"sum_hessian":[5.2537624E7,2.4780946E7,2.7756678E7,1.0855018E7,1.3925928E7,1.420764E7,1.3549039E7,6.96172E6,3.8932982E6,1.0688241E7,3.2376868E6,1.1840098E7,2.3675415E6,1.070995E7,2.8390888E6],"tree_param":{"num_deleted":"0","num_feature":"12","num_nodes":"15","size_leaf_vector":"1"}},{"base_weights":[-9.8781295E-2,-2.4222007E-1,2.7411388E-2,-2.8641054E-1,-1.646886E-1,-4.0305045E-2,9.7908035E-2,-1.5859835E-2,-1.24691455E-2,-1.0161221E-2,-6.8967133E-3,-3.4869995E-3,-2.9847116E-4,3.3250314E-3,1.0780651E-2],"categories":[],"categories_nodes":[],"categories_segments":[],"categories_sizes":[],"default_left":[0,0,0,0,0,0,0,0,0,0,0,0,0,0,0],"id":54,"left_children":[1,3,5,7,9,11,13,-1,-1,-1,-1,-1,-1,-1,-1],"loss_changes":[9.4580525E5,8.3786125E4,1.3269655E5,1.7756E4,9.153375E3,1.4329287E4,5.034646E4,0E0,0E0,0E0,0E0,0E0,0E0,0E0,0E0],"parents":[2147483647,0,0,1,1,2,2,3,3,4,4,5,5,6,6],"right_children":[2,4,6,8,10,12,14,-1,-1,-1,-1,-1,-1,-1,-1],"split_conditions":[6E0,3E0,1.5E1,2E0,4E0,1E1,4E1,-1.5859835E-2,-1.24691455E-2,-1.0161221E-2,-6.8967133E-3,-3.4869995E-3,-2.9847116E-4,3.3250314E-3,1.0780651E-2],"split_indices":[2,2,2,9,2,2,2,0,0,0,0,0,0,0,0],"split_type":[0,0,0,0,0,0,0,0,0,0,0,0,0,0,0],"sum_hessian":[5.2251772E7,2.4454828E7,2.7796944E7,1.5576638E7,8.87819E6,1.4178046E7,1.3618898E7,8.505141E6,7.0714975E6,3.6380658E6,5.2401245E6,7.6338035E6,6.544242E6,1.0750363E7,2.8685348E6],"tree_param":{"num_deleted":"0","num_feature":"12","num_nodes":"15","size_leaf_vector":"1"}},{"base_weights":[-9.711625E-2,-2.5288936E-1,1.5259544E-2,-3.057646E-1,-2.0342456E-1,-5.506427E-2,8.868382E-2,-1.6303374E-2,-1.3477996E-2,-1.12160845E-2,-6.965756E-3,-4.3253624E-3,-9.1741356E-4,3.1672404E-3,1.1076334E-2],"categories":[],"categories_nodes":[],"categories_segments":[],"categories_sizes":[],"default_left":[0,0,0,0,0,0,0,0,0,0,0,0,0,0,0],"id":55,"left_children":[1,3,5,7,9,11,13,-1,-1,-1,-1,-1,-1,-1,-1],"loss_changes":[9.104E5,5.7005E4,1.5600038E5,7.7433125E3,1.50860625E4,1.7815582E4,4.975214E4,0E0,0E0,0E0,0E0,0E0,0E0,0E0,0E0],"parents":[2147483647,0,0,1,1,2,2,3,3,4,4,5,5,6,6],"right_children":[2,4,6,8,10,12,14,-1,-1,-1,-1,-1,-1,-1,-1],"split_conditions":[5E0,2E0,1.4E1,2E0,5E0,9E0,4.5E1,-1.6303374E-2,-1.3477996E-2,-1.12160845E-2,-6.965756E-3,-4.3253624E-3,-9.1741356E-4,3.1672404E-3,1.1076334E-2],"split_indices":[2,2,2,8,8,2,2,0,0,0,0,0,0,0,0],"split_type":[0,0,0,0,0,0,0,0,0,0,0,0,0,0,0],"sum_hessian":[5.2007628E7,2.1795348E7,3.0212282E7,1.0534512E7,1.1260837E7,1.5431961E7,1.478032E7,6.749506E6,3.7850055E6,8.49259E6,2.768247E6,8.3129155E6,7.1190455E6,1.2412675E7,2.3676455E6],"tree_param":{"num_deleted":"0","num_feature":"12","num_nodes":"15","size_leaf_vector":"1"}},{"base_weights":[-9.498119E-2,-2.3605171E-1,2.5922338E-2,-3.0287823E-1,-1.8476361E-1,-3.8467083E-2,9.218678E-2,-1.6301429E-2,-1.3330506E-2,-7.413573E-3,-1.18423505E-2,3.681913E-3,-3.1423375E-3,3.3018638E-3,1.0834734E-2],"categories":[0,1,2,3,4,15,19,20,21,22,23,0,1,2,3,4,8,9,10,11,12,13,14,15,18,19,20,21,22,23],"categories_nodes":[4,5],"categories_segments":[0,11],"categories_sizes":[11,19],"default_left":[0,0,0,0,1,1,0,0,0,0,0,0,0,0,0],"id":56,"left_children":[1,3,5,7,9,11,13,-1,-1,-1,-1,-1,-1,-1,-1],"loss_changes":[8.829765E5,8.1888E4,1.1894521E5,8.7104375E3,2.5692031E4,3.864242E4,4.4730547E4,0E0,0E0,0E0,0E0,0E0,0E0,0E0,0E0],"parents":[2147483647,0,0,1,1,2,2,3,3,4,4,5,5,6,6],"right_children":[2,4,6,8,10,12,14,-1,-1,-1,-1,-1,-1,-1,-1],"split_conditions":[6E0,2E0,1.5E1,2E0,NaN,NaN,4.5E1,-1.6301429E-2,-1.3330506E-2,-7.413573E-3,-1.18423505E-2,3.681913E-3,-3.1423375E-3,3.3018638E-3,1.0834734E-2],"split_indices":[2,2,2,9,5,5,2,0,0,0,0,0,0,0,0],"split_type":[0,0,0,0,1,1,0,0,0,0,0,0,0,0,0],"sum_hessian":[5.1769492E7,2.3892116E7,2.7877374E7,1.0374506E7,1.351761E7,1.4138722E7,1.3738653E7,6.3324295E6,4.0420765E6,7.948504E6,5.569106E6,2.5255322E6,1.161319E7,1.1354045E7,2.3846072E6],"tree_param":{"num_deleted":"0","num_feature":"12","num_nodes":"15","size_leaf_vector":"1"}},{"base_weights":[-9.296629E-2,-2.46859E-1,1.5181047E-2,-3.000381E-1,-1.9767405E-1,-5.2613452E-2,8.4907666E-2,-1.6167099E-2,-1.31800445E-2,-1.1245809E-2,-7.3574833E-3,-4.171404E-3,-8.40111E-4,2.6894275E-3,9.21446E-3],"categories":[],"categories_nodes":[],"categories_segments":[],"categories_sizes":[],"default_left":[0,0,0,0,0,0,0,0,0,0,0,0,0,0,0],"id":57,"left_children":[1,3,5,7,9,11,13,-1,-1,-1,-1,-1,-1,-1,-1],"loss_changes":[8.5788225E5,5.5643375E4,1.4309923E5,8.679625E3,1.521175E4,1.6937512E4,4.6153227E4,0E0,0E0,0E0,0E0,0E0,0E0,0E0,0E0],"parents":[2147483647,0,0,1,1,2,2,3,3,4,4,5,5,6,6],"right_children":[2,4,6,8,10,12,14,-1,-1,-1,-1,-1,-1,-1,-1],"split_conditions":[5E0,2E0,1.4E1,2E0,4E0,9E0,3.6E1,-1.6167099E-2,-1.31800445E-2,-1.1245809E-2,-7.3574833E-3,-4.171404E-3,-8.40111E-4,2.6894275E-3,9.21446E-3],"split_indices":[2,2,2,9,8,2,2,0,0,0,0,0,0,0,0],"split_type":[0,0,0,0,0,0,0,0,0,0,0,0,0,0,0],"sum_hessian":[5.1545864E7,2.1273648E7,3.0272216E7,1.0221782E7,1.1051866E7,1.5348764E7,1.4923451E7,6.2344535E6,3.987328E6,7.180323E6,3.871543E6,8.2499225E6,7.0988415E6,1.1364814E7,3.5586378E6],"tree_param":{"num_deleted":"0","num_feature":"12","num_nodes":"15","size_leaf_vector":"1"}},{"base_weights":[-9.115141E-2,-2.136564E-1,2.1706302E-2,-8.560503E-2,-2.3612475E-1,-3.9918035E-2,7.8704596E-2,-8.130131E-3,3.174771E-5,-1.3992782E-2,-8.290104E-3,-6.40728E-4,-8.191928E-3,5.807841E-3,-9.469772E-4],"categories":[0,1,2,3,4,8,9,10,11,12,13,14,15,16,17,18,19,20,21,22,23,0,1,2,3,4,22,23,0,1,2,3,4,5,9,22,23],"categories_nodes":[1,5,6],"categories_segments":[0,21,28],"categories_sizes":[21,7,9],"default_left":[0,1,0,0,0,1,1,0,0,0,0,0,0,0,0],"id":58,"left_children":[1,3,5,7,9,11,13,-1,-1,-1,-1,-1,-1,-1,-1],"loss_changes":[7.0867025E5,7.0714375E4,9.371078E4,2.4362213E4,6.4302625E4,4.305642E4,5.0685523E4,0E0,0E0,0E0,0E0,0E0,0E0,0E0,0E0],"parents":[2147483647,0,0,1,1,2,2,3,3,4,4,5,5,6,6],"right_children":[2,4,6,8,10,12,14,-1,-1,-1,-1,-1,-1,-1,-1],"split_conditions":[6E0,NaN,1.4E1,2E0,3E0,NaN,NaN,-8.130131E-3,3.174771E-5,-1.3992782E-2,-8.290104E-3,-6.40728E-4,-8.191928E-3,5.807841E-3,-9.469772E-4],"split_indices":[8,5,8,8,8,5,5,0,0,0,0,0,0,0,0],"split_type":[0,1,0,0,0,1,1,0,0,0,0,0,0,0,0],"sum_hessian":[5.125771E7,2.4578356E7,2.6679358E7,3.6688575E6,2.0909498E7,1.2819459E7,1.3859899E7,1.9382925E6,1.7305651E6,1.2892293E7,8.017205E6,1.051882E7,2.3006392E6,1.0017574E7,3.8423245E6],"tree_param":{"num_deleted":"0","num_feature":"12","num_nodes":"15","size_leaf_vector":"1"}},{"base_weights":[-8.930056E-2,-2.4106874E-1,1.4855787E-2,-2.9480454E-1,-1.9173811E-1,-4.9826458E-2,8.0496795E-2,-1.5924398E-2,-1.2895039E-2,-7.833718E-3,-1.2049966E-2,-1.3193865E-3,-8.217339E-3,3.021307E-3,1.1088702E-2],"categories":[0,1,2,3,4,15,19,20,21,22,23,0,1,2,3,4,22,23],"categories_nodes":[4,5],"categories_segments":[0,11],"categories_sizes":[11,7],"default_left":[0,0,0,0,1,1,0,0,0,0,0,0,0,0,0],"id":59,"left_children":[1,3,5,7,9,11,13,-1,-1,-1,-1,-1,-1,-1,-1],"loss_changes":[8.068794E5,5.50675E4,1.2852018E5,8.690125E3,1.8707844E4,4.0924277E4,4.259983E4,0E0,0E0,0E0,0E0,0E0,0E0,0E0,0E0],"parents":[2147483647,0,0,1,1,2,2,3,3,4,4,5,5,6,6],"right_children":[2,4,6,8,10,12,14,-1,-1,-1,-1,-1,-1,-1,-1],"split_conditions":[5E0,2E0,1.4E1,2E0,NaN,NaN,5.3E1,-1.5924398E-2,-1.2895039E-2,-7.833718E-3,-1.2049966E-2,-1.3193865E-3,-8.217339E-3,3.021307E-3,1.1088702E-2],"split_indices":[2,2,2,9,5,5,2,0,0,0,0,0,0,0,0],"split_type":[0,0,0,0,1,1,0,0,0,0,0,0,0,0,0],"sum_hessian":[5.10437E7,2.07738E7,3.02699E7,9.94295E6,1.083085E7,1.5246295E7,1.5023604E7,6.056266E6,3.8866838E6,6.3271985E6,4.5036515E6,1.2656008E7,2.5902872E6,1.3154764E7,1.86884E6],"tree_param":{"num_deleted":"0","num_feature":"12","num_nodes":"15","size_leaf_vector":"1"}},{"base_weights":[-8.7566264E-2,-2.0798461E-1,2.083306E-2,-2.6979902E-1,-1.6160998E-1,-3.8091045E-2,7.462398E-2,-7.868778E-3,-1.4756329E-2,1.512556E-4,-9.254078E-3,-6.015476E-4,-7.975749E-3,5.520098E-3,-9.915633E-4],"categories":[0,1,2,3,4,8,9,10,11,12,13,14,15,16,17,18,19,20,21,22,23,0,1,2,3,4,8,9,10,11,12,13,14,15,16,17,18,19,20,21,22,23,0,1,2,3,4,22,23,0,1,2,3,4,5,9,22,23],"categories_nodes":[3,4,5,6],"categories_segments":[0,21,42,49],"categories_sizes":[21,21,7,9],"default_left":[0,0,0,1,1,1,1,0,0,0,0,0,0,0,0],"id":60,"left_children":[1,3,5,7,9,11,13,-1,-1,-1,-1,-1,-1,-1,-1],"loss_changes":[6.635305E5,6.903194E4,8.479043E4,2.9391688E4,5.316797E4,4.03973E4,4.726047E4,0E0,0E0,0E0,0E0,0E0,0E0,0E0,0E0],"parents":[2147483647,0,0,1,1,2,2,3,3,4,4,5,5,6,6],"right_children":[2,4,6,8,10,12,14,-1,-1,-1,-1,-1,-1,-1,-1],"split_conditions":[6E0,2E0,1.4E1,NaN,NaN,NaN,NaN,-7.868778E-3,-1.4756329E-2,1.512556E-4,-9.254078E-3,-6.015476E-4,-7.975749E-3,5.520098E-3,-9.915633E-4],"split_indices":[8,8,8,5,5,5,5,0,0,0,0,0,0,0,0],"split_type":[0,0,0,1,1,1,1,0,0,0,0,0,0,0,0],"sum_hessian":[5.0832532E7,2.4081234E7,2.6751296E7,1.0322283E7,1.3758951E7,1.2766505E7,1.3984792E7,1.8979058E6,8.424377E6,1.7168158E6,1.2042136E7,1.0510693E7,2.2558118E6,1.0142857E7,3.841935E6],"tree_param":{"num_deleted":"0","num_feature":"12","num_nodes":"15","size_leaf_vector":"1"}},{"base_weights":[-8.585178E-2,-2.3531984E-1,1.4597553E-2,-2.8932783E-1,-1.8616815E-1,-4.7359973E-2,7.677118E-2,-1.3595292E-2,-1.6448176E-2,-7.5721317E-3,-1.1761812E-2,3.0054802E-3,-3.5850615E-3,2.4047338E-3,8.365796E-3],"categories":[0,1,2,3,4,15,19,20,21,22,23,0,1,2,3,4,8,9,10,11,12,13,14,15,18,19,20,21,22,23],"categories_nodes":[4,5],"categories_segments":[0,11],"categories_sizes":[11,19],"default_left":[0,0,0,0,1,1,0,0,0,0,0,0,0,0,0],"id":61,"left_children":[1,3,5,7,9,11,13,-1,-1,-1,-1,-1,-1,-1,-1],"loss_changes":[7.5958975E5,5.397975E4,1.1655634E5,6.69025E3,1.8139656E4,3.964509E4,3.9213727E4,0E0,0E0,0E0,0E0,0E0,0E0,0E0,0E0],"parents":[2147483647,0,0,1,1,2,2,3,3,4,4,5,5,6,6],"right_children":[2,4,6,8,10,12,14,-1,-1,-1,-1,-1,-1,-1,-1],"split_conditions":[5E0,2E0,1.4E1,-7.3952E1,NaN,NaN,3.6E1,-1.3595292E-2,-1.6448176E-2,-7.5721317E-3,-1.1761812E-2,3.0054802E-3,-3.5850615E-3,2.4047338E-3,8.365796E-3],"split_indices":[2,2,2,0,5,5,2,0,0,0,0,0,0,0,0],"split_type":[0,0,0,0,1,1,0,0,0,0,0,0,0,0,0],"sum_hessian":[5.059221E7,2.0334532E7,3.0257674E7,9.688632E6,1.0645901E7,1.5155175E7,1.51025E7,6.7303095E6,2.958323E6,6.234057E6,4.4118435E6,2.7986765E6,1.2356498E7,1.1469869E7,3.6326302E6],"tree_param":{"num_deleted":"0","num_feature":"12","num_nodes":"15","size_leaf_vector":"1"}},{"base_weights":[-8.41231E-2,-2.0210963E-1,1.9961715E-2,-7.5425014E-2,-2.2475468E-1,-3.5958488E-2,7.058494E-2,-7.540936E-3,3.338542E-4,-1.3543437E-2,-7.901709E-3,-5.3559826E-4,-7.716074E-3,5.2279406E-3,-9.766854E-4],"categories":[0,1,2,3,4,8,9,10,11,12,13,14,15,16,17,18,19,20,21,22,23,0,1,2,3,4,22,23,0,1,2,3,4,5,9,22,23],"categories_nodes":[1,5,6],"categories_segments":[0,21,28],"categories_sizes":[21,7,9],"default_left":[0,1,0,0,0,1,1,0,0,0,0,0,0,0,0],"id":62,"left_children":[1,3,5,7,9,11,13,-1,-1,-1,-1,-1,-1,-1,-1],"loss_changes":[6.184441E5,6.771325E4,7.574242E4,2.2156037E4,6.160925E4,3.7989297E4,4.2995453E4,0E0,0E0,0E0,0E0,0E0,0E0,0E0,0E0],"parents":[2147483647,0,0,1,1,2,2,3,3,4,4,5,5,6,6],"right_children":[2,4,6,8,10,12,14,-1,-1,-1,-1,-1,-1,-1,-1],"split_conditions":[6E0,NaN,1.4E1,2E0,3E0,NaN,NaN,-7.540936E-3,3.338542E-4,-1.3543437E-2,-7.901709E-3,-5.3559826E-4,-7.716074E-3,5.2279406E-3,-9.766854E-4],"split_indices":[8,5,8,8,9,5,5,0,0,0,0,0,0,0,0],"split_type":[0,1,0,0,0,1,1,0,0,0,0,0,0,0,0],"sum_hessian":[5.035942E7,2.3603454E7,2.6755966E7,3.579338E6,2.0024116E7,1.2712875E7,1.404309E7,1.8658979E6,1.7134401E6,1.184051E7,8.183606E6,1.0477955E7,2.2349198E6,1.0198393E7,3.8446975E6],"tree_param":{"num_deleted":"0","num_feature":"12","num_nodes":"15","size_leaf_vector":"1"}},{"base_weights":[-8.21413E-2,-2.1099864E-1,1.06541095E-2,-8.470492E-2,-2.3502569E-1,-4.8789877E-2,6.483703E-2,-2.733954E-3,-1.3363912E-2,-1.3634527E-2,-8.484642E-3,-1.8447526E-4,-5.86715E-3,5.0885025E-3,-6.4597453E-4],"categories":[0,1,2,3,4,8,9,10,11,12,13,14,15,16,17,18,19,20,21,22,23,0,1,2,3,4,15,19,20,21,22,23,0,1,2,3,4,5,9,15,22,23],"categories_nodes":[1,5,6],"categories_segments":[0,21,32],"categories_sizes":[21,11,10],"default_left":[0,1,0,0,0,1,1,0,0,0,0,0,0,0,0],"id":63,"left_children":[1,3,5,7,9,11,13,-1,-1,-1,-1,-1,-1,-1,-1],"loss_changes":[6.001956E5,6.37665E4,9.398611E4,1.841299E4,4.3445125E4,4.3021133E4,4.38401E4,0E0,0E0,0E0,0E0,0E0,0E0,0E0,0E0],"parents":[2147483647,0,0,1,1,2,2,3,3,4,4,5,5,6,6],"right_children":[2,4,6,8,10,12,14,-1,-1,-1,-1,-1,-1,-1,-1],"split_conditions":[5E0,NaN,1.3E1,-7.3945E1,3E0,NaN,NaN,-2.733954E-3,-1.3363912E-2,-1.3634527E-2,-8.484642E-3,-1.8447526E-4,-5.86715E-3,5.0885025E-3,-6.4597453E-4],"split_indices":[8,5,8,0,9,5,5,0,0,0,0,0,0,0,0],"split_type":[0,1,0,0,0,1,1,0,0,0,0,0,0,0,0],"sum_hessian":[5.0194624E7,2.101409E7,2.9180534E7,3.3588612E6,1.765523E7,1.3914721E7,1.5265814E7,2.884483E6,4.7437816E5,1.1198953E7,6.4562765E6,8.393034E6,5.5216865E6,1.0349825E7,4.9159895E6],"tree_param":{"num_deleted":"0","num_feature":"12","num_nodes":"15","size_leaf_vector":"1"}},{"base_weights":[-8.050824E-2,-2.2696187E-1,1.4774102E-2,-2.81394E-1,-1.7796938E-1,-3.924479E-2,7.656736E-2,-1.3191298E-2,-1.6083455E-2,-7.73823E-3,-1.2636848E-2,-8.674982E-4,-7.4796253E-3,2.8791552E-2,3.5513397E-3],"categories":[0,1,2,3,4,22,23,0,1,2,3,4,22,23,0,1,2,3,4,7,8,9,10,11,12,13,14,15,16,17,18,19,20,21,22,23],"categories_nodes":[4,5,6],"categories_segments":[0,7,14],"categories_sizes":[7,7,22],"default_left":[0,0,0,0,1,1,1,0,0,0,0,0,0,0,0],"id":64,"left_children":[1,3,5,7,9,11,13,-1,-1,-1,-1,-1,-1,-1,-1],"loss_changes":[6.974703E5,5.2537188E4,1.0107849E5,6.603125E3,1.7988938E4,3.9035855E4,3.9070344E4,0E0,0E0,0E0,0E0,0E0,0E0,0E0,0E0],"parents":[2147483647,0,0,1,1,2,2,3,3,4,4,5,5,6,6],"right_children":[2,4,6,8,10,12,14,-1,-1,-1,-1,-1,-1,-1,-1],"split_conditions":[5E0,2E0,1.5E1,-7.3952E1,NaN,NaN,NaN,-1.3191298E-2,-1.6083455E-2,-7.73823E-3,-1.2636848E-2,-8.674982E-4,-7.4796253E-3,2.8791552E-2,3.5513397E-3],"split_indices":[2,2,2,0,5,5,5,0,0,0,0,0,0,0,0],"split_type":[0,0,0,0,1,1,1,0,0,0,0,0,0,0,0],"sum_hessian":[4.9981944E7,1.970082E7,3.0281126E7,9.332321E6,1.03685E7,1.6156936E7,1.412419E7,6.497923E6,2.8343978E6,7.9127185E6,2.4557812E6,1.3481903E7,2.675033E6,1.5502134E5,1.3969169E7],"tree_param":{"num_deleted":"0","num_feature":"12","num_nodes":"15","size_leaf_vector":"1"}},{"base_weights":[-7.887845E-2,-2.2395824E-1,1.445425E-2,-2.7836606E-1,-1.7520705E-1,-4.2465214E-2,7.047834E-2,-1.5152216E-2,-1.2024289E-2,-1.009225E-2,-6.3449927E-3,-3.8964301E-3,-8.590968E-4,2.0675682E-3,7.5127655E-3],"categories":[],"categories_nodes":[],"categories_segments":[],"categories_sizes":[],"default_left":[0,0,0,0,0,0,0,0,0,0,0,0,0,0,0],"id":65,"left_children":[1,3,5,7,9,11,13,-1,-1,-1,-1,-1,-1,-1,-1],"loss_changes":[6.73726E5,5.1664625E4,9.655085E4,8.6049375E3,1.32194375E4,1.3466273E4,3.545625E4,0E0,0E0,0E0,0E0,0E0,0E0,0E0,0E0],"parents":[2147483647,0,0,1,1,2,2,3,3,4,4,5,5,6,6],"right_children":[2,4,6,8,10,12,14,-1,-1,-1,-1,-1,-1,-1,-1],"split_conditions":[5E0,2E0,1.4E1,2E0,4E0,8E0,3.4E1,-1.5152216E-2,-1.2024289E-2,-1.009225E-2,-6.3449927E-3,-3.8964301E-3,-8.590968E-4,2.0675682E-3,7.5127655E-3],"split_indices":[2,2,2,9,8,2,2,0,0,0,0,0,0,0,0],"split_type":[0,0,0,0,0,0,0,0,0,0,0,0,0,0,0],"sum_hessian":[4.9755664E7,1.9478132E7,3.0277532E7,9.205032E6,1.02731E7,1.5018753E7,1.5258779E7,5.5738025E6,3.6312298E6,6.621704E6,3.6513962E6,6.250931E6,8.767822E6,1.1177733E7,4.0810465E6],"tree_param":{"num_deleted":"0","num_feature":"12","num_nodes":"15","size_leaf_vector":"1"}},{"base_weights":[-7.729226E-2,-2.0242088E-1,1.0109595E-2,-7.586702E-2,-2.2677644E-1,-4.5630608E-2,6.0210016E-2,-2.3142193E-3,-1.29612E-2,-1.32158E-2,-8.117889E-3,-1.2212826E-3,-9.239386E-3,4.5494353E-3,-1.2273522E-3],"categories":[0,1,2,3,4,8,9,10,11,12,13,14,15,16,17,18,19,20,21,22,23,0,1,2,3,4,23,0,1,2,3,4,5,9,22,23],"categories_nodes":[1,5,6],"categories_segments":[0,21,27],"categories_sizes":[21,6,9],"default_left":[0,1,0,0,0,1,1,0,0,0,0,0,0,0,0],"id":66,"left_children":[1,3,5,7,9,11,13,-1,-1,-1,-1,-1,-1,-1,-1],"loss_changes":[5.422773E5,6.2851625E4,8.1524766E4,1.7850873E4,4.1352562E4,4.077664E4,4.0107137E4,0E0,0E0,0E0,0E0,0E0,0E0,0E0,0E0],"parents":[2147483647,0,0,1,1,2,2,3,3,4,4,5,5,6,6],"right_children":[2,4,6,8,10,12,14,-1,-1,-1,-1,-1,-1,-1,-1],"split_conditions":[5E0,NaN,1.3E1,-7.3945E1,3E0,NaN,NaN,-2.3142193E-3,-1.29612E-2,-1.32158E-2,-8.117889E-3,-1.2212826E-3,-9.239386E-3,4.5494353E-3,-1.2273522E-3],"split_indices":[8,5,8,0,9,5,5,0,0,0,0,0,0,0,0],"split_type":[0,1,0,0,0,1,1,0,0,0,0,0,0,0,0],"sum_hessian":[4.9584296E7,2.0391238E7,2.9193058E7,3.2909815E6,1.7100258E7,1.3818744E7,1.5374314E7,2.833783E6,4.5719853E5,1.0804187E7,6.296071E6,1.1991468E7,1.8272758E6,1.1278601E7,4.0957125E6],"tree_param":{"num_deleted":"0","num_feature":"12","num_nodes":"15","size_leaf_vector":"1"}},{"base_weights":[-7.565958E-2,-2.1811683E-1,1.4116249E-2,-2.729242E-1,-1.6934294E-1,-1.8006256E-2,1.04415305E-1,-1.4886769E-2,-1.1752348E-2,-6.706744E-3,-1.0981537E-2,4.203002E-3,-1.9949002E-3,3.3727888E-2,4.8654205E-3],"categories":[0,1,2,3,4,15,19,20,21,22,23,0,1,2,3,4,8,9,10,11,12,13,14,15,18,19,20,21,22,23,0,1,2,3,4,7,8,9,10,11,12,13,14,15,16,17,18,19,20,21,22,23],"categories_nodes":[4,5,6],"categories_segments":[0,11,30],"categories_sizes":[11,19,22],"default_left":[0,0,0,0,1,1,1,0,0,0,0,0,0,0,0],"id":67,"left_children":[1,3,5,7,9,11,13,-1,-1,-1,-1,-1,-1,-1,-1],"loss_changes":[6.316381E5,5.1037E4,8.787744E4,8.448625E3,1.7886344E4,4.99313E4,3.2210617E4,0E0,0E0,0E0,0E0,0E0,0E0,0E0,0E0],"parents":[2147483647,0,0,1,1,2,2,3,3,4,4,5,5,6,6],"right_children":[2,4,6,8,10,12,14,-1,-1,-1,-1,-1,-1,-1,-1],"split_conditions":[5E0,2E0,2.3E1,2E0,NaN,NaN,NaN,-1.4886769E-2,-1.1752348E-2,-6.706744E-3,-1.0981537E-2,4.203002E-3,-1.9949002E-3,3.3727888E-2,4.8654205E-3],"split_indices":[2,2,2,9,5,5,5,0,0,0,0,0,0,0,0],"split_type":[0,0,0,0,1,1,1,0,0,0,0,0,0,0,0],"sum_hessian":[4.938832E7,1.9092358E7,3.0295962E7,8.990125E6,1.0102234E7,2.2346528E7,7.9494345E6,5.431961E6,3.5581635E6,5.942035E6,4.1601995E6,3.946533E6,1.8399996E7,9.786962E4,7.8515645E6],"tree_param":{"num_deleted":"0","num_feature":"12","num_nodes":"15","size_leaf_vector":"1"}},{"base_weights":[-7.4086145E-2,-2.1513368E-1,1.3745083E-2,-2.6989868E-1,-1.6664839E-1,-4.4160612E-2,6.1758187E-2,-1.4733481E-2,-1.1609304E-2,-7.1699E-3,-1.2114038E-2,-2.9784147E-4,-5.319863E-3,8.71127E-3,2.1100102E-3],"categories":[0,1,2,3,4,22,23,0,1,2,3,4,15,19,20,21,22,23,0,1,2,3,4,8,9,10,11,12,13,14,15,18,19,20,21,22,23],"categories_nodes":[4,5,6],"categories_segments":[0,7,18],"categories_sizes":[7,11,19],"default_left":[0,0,0,0,1,1,1,0,0,0,0,0,0,0,0],"id":68,"left_children":[1,3,5,7,9,11,13,-1,-1,-1,-1,-1,-1,-1,-1],"loss_changes":[6.094721E5,5.0129812E4,8.429087E4,8.28175E3,1.7608875E4,3.2676738E4,3.6458395E4,0E0,0E0,0E0,0E0,0E0,0E0,0E0,0E0],"parents":[2147483647,0,0,1,1,2,2,3,3,4,4,5,5,6,6],"right_children":[2,4,6,8,10,12,14,-1,-1,-1,-1,-1,-1,-1,-1],"split_conditions":[5E0,2E0,1.3E1,2E0,NaN,NaN,NaN,-1.4733481E-2,-1.1609304E-2,-7.1699E-3,-1.2114038E-2,-2.9784147E-4,-5.319863E-3,8.71127E-3,2.1100102E-3],"split_indices":[2,2,2,9,5,5,5,0,0,0,0,0,0,0,0],"split_type":[0,0,0,0,1,1,1,0,0,0,0,0,0,0,0],"sum_hessian":[4.9197084E7,1.8879166E7,3.0317918E7,8.865465E6,1.0013702E7,1.3743145E7,1.6574774E7,5.3508395E6,3.5146252E6,7.659174E6,2.354528E6,8.515768E6,5.2273775E6,2.4553572E6,1.4119417E7],"tree_param":{"num_deleted":"0","num_feature":"12","num_nodes":"15","size_leaf_vector":"1"}},{"base_weights":[-7.260336E-2,-2.1202166E-1,1.3233494E-2,-2.667201E-1,-1.6387188E-1,-2.271394E-2,8.725271E-2,-1.4584149E-2,-1.1440369E-2,-4.2592855E-3,-9.312025E-3,7.3795345E-5,-5.494343E-3,2.9587513E-2,4.071683E-3],"categories":[0,1,2,3,4,8,9,10,11,12,13,14,15,18,19,20,21,22,23,0,1,2,3,4,15,22,23,0,1,2,3,4,7,8,9,10,11,12,13,14,15,16,17,18,19,20,21,22,23],"categories_nodes":[4,5,6],"categories_segments":[0,19,27],"categories_sizes":[19,8,22],"default_left":[0,0,0,0,1,1,1,0,0,0,0,0,0,0,0],"id":69,"left_children":[1,3,5,7,9,11,13,-1,-1,-1,-1,-1,-1,-1,-1],"loss_changes":[5.863766E5,4.917575E4,8.069387E4,8.272875E3,1.7478188E4,4.3045355E4,2.9103484E4,0E0,0E0,0E0,0E0,0E0,0E0,0E0,0E0],"parents":[2147483647,0,0,1,1,2,2,3,3,4,4,5,5,6,6],"right_children":[2,4,6,8,10,12,14,-1,-1,-1,-1,-1,-1,-1,-1],"split_conditions":[5E0,2E0,2E1,2E0,NaN,NaN,NaN,-1.4584149E-2,-1.1440369E-2,-4.2592855E-3,-9.312025E-3,7.3795345E-5,-5.494343E-3,2.9587513E-2,4.071683E-3],"split_indices":[2,2,2,9,5,5,5,0,0,0,0,0,0,0,0],"split_type":[0,0,0,0,1,1,1,0,0,0,0,0,0,0,0],"sum_hessian":[4.899853E7,1.8671622E7,3.0326906E7,8.741371E6,9.930252E6,2.0413224E7,9.913683E6,5.2708635E6,3.4705075E6,2.1980748E6,7.7321775E6,1.5979133E7,4.4340915E6,1.1304271E5,9.80064E6],"tree_param":{"num_deleted":"0","num_feature":"12","num_nodes":"15","size_leaf_vector":"1"}},{"base_weights":[-7.0973225E-2,-2.0899679E-1,1.3031033E-2,-2.6377302E-1,-1.6105376E-1,-3.49771E-2,6.6441566E-2,-1.4319156E-2,-1.122948E-2,-6.317536E-3,-1.0555069E-2,3.1808638E-3,-2.8820883E-3,2.6358243E-3,1.1320655E-2],"categories":[0,1,2,3,4,15,19,20,21,22,23,0,1,2,3,4,8,9,10,11,12,13,14,15,18,19,20,21,22,23],"categories_nodes":[4,5],"categories_segments":[0,11],"categories_sizes":[11,19],"default_left":[0,0,0,0,1,1,0,0,0,0,0,0,0,0,0],"id":70,"left_children":[1,3,5,7,9,11,13,-1,-1,-1,-1,-1,-1,-1,-1],"loss_changes":[5.663899E5,4.8536875E4,7.786612E4,7.642375E3,1.7117703E4,3.5736934E4,3.1561754E4,0E0,0E0,0E0,0E0,0E0,0E0,0E0,0E0],"parents":[2147483647,0,0,1,1,2,2,3,3,4,4,5,5,6,6],"right_children":[2,4,6,8,10,12,14,-1,-1,-1,-1,-1,-1,-1,-1],"split_conditions":[5E0,2E0,1.5E1,2E0,NaN,NaN,7.4E1,-1.4319156E-2,-1.122948E-2,-6.317536E-3,-1.0555069E-2,3.1808638E-3,-2.8820883E-3,2.6358243E-3,1.1320655E-2],"split_indices":[2,2,2,8,5,5,2,0,0,0,0,0,0,0,0],"split_type":[0,0,0,0,1,1,0,0,0,0,0,0,0,0,0],"sum_hessian":[4.8849588E7,1.8482248E7,3.0367342E7,8.626372E6,9.855876E6,1.5992479E7,1.4374863E7,5.470002E6,3.1563705E6,5.8201695E6,4.035706E6,2.9891722E6,1.3003306E7,1.3238998E7,1.1358651E6],"tree_param":{"num_deleted":"0","num_feature":"12","num_nodes":"15","size_leaf_vector":"1"}},{"base_weights":[-6.975367E-2,-2.0608103E-1,1.2321198E-2,-2.605026E-1,-1.5864967E-1,-4.7372606E-2,5.344628E-2,-1.42909605E-2,-1.11131165E-2,-6.783054E-3,-1.1703555E-2,-5.281481E-4,-5.400505E-3,8.013006E-3,1.719057E-3],"categories":[0,1,2,3,4,22,23,0,1,2,3,4,15,19,20,21,22,23,0,1,2,3,4,8,9,10,11,12,13,14,15,18,19,20,21,22,23],"categories_nodes":[4,5,6],"categories_segments":[0,7,18],"categories_sizes":[7,11,19],"default_left":[0,0,0,0,1,1,1,0,0,0,0,0,0,0,0],"id":71,"left_children":[1,3,5,7,9,11,13,-1,-1,-1,-1,-1,-1,-1,-1],"loss_changes":[5.444705E5,4.720325E4,7.456642E4,8.2443125E3,1.6940938E4,2.7655072E4,3.6623684E4,0E0,0E0,0E0,0E0,0E0,0E0,0E0,0E0],"parents":[2147483647,0,0,1,1,2,2,3,3,4,4,5,5,6,6],"right_children":[2,4,6,8,10,12,14,-1,-1,-1,-1,-1,-1,-1,-1],"split_conditions":[5E0,2E0,1.2E1,2E0,NaN,NaN,NaN,-1.42909605E-2,-1.11131165E-2,-6.783054E-3,-1.1703555E-2,-5.281481E-4,-5.400505E-3,8.013006E-3,1.719057E-3],"split_indices":[2,2,2,9,5,5,5,0,0,0,0,0,0,0,0],"split_type":[0,0,0,0,1,1,1,0,0,0,0,0,0,0,0],"sum_hessian":[4.866102E7,1.8286658E7,3.0374364E7,8.515814E6,9.770843E6,1.2390022E7,1.7984342E7,5.12371E6,3.3921045E6,7.4883755E6,2.2824678E6,7.7098205E6,4.6802015E6,2.723837E6,1.5260505E7],"tree_param":{"num_deleted":"0","num_feature":"12","num_nodes":"15","size_leaf_vector":"1"}},{"base_weights":[-6.79058E-2,-2.0302762E-1,1.2545731E-2,-2.5734448E-1,-1.559885E-1,-1.4352398E-2,1.00835636E-1,-1.4137792E-2,-1.095286E-2,-3.9231824E-3,-8.909685E-3,7.0913426E-5,-6.8083378E-3,3.0234618E-2,4.6804207E-3],"categories":[0,1,2,3,4,8,9,10,11,12,13,14,15,18,19,20,21,22,23,0,1,2,3,4,23,0,1,2,3,4,7,8,9,10,11,12,13,14,15,16,17,18,19,20,21,22,23],"categories_nodes":[4,5,6],"categories_segments":[0,19,25],"categories_sizes":[19,6,22],"default_left":[0,0,0,0,1,1,1,0,0,0,0,0,0,0,0],"id":72,"left_children":[1,3,5,7,9,11,13,-1,-1,-1,-1,-1,-1,-1,-1],"loss_changes":[5.271922E5,4.6242562E4,7.21893E4,8.1723125E3,1.669661E4,4.4760184E4,2.5848266E4,0E0,0E0,0E0,0E0,0E0,0E0,0E0,0E0],"parents":[2147483647,0,0,1,1,2,2,3,3,4,4,5,5,6,6],"right_children":[2,4,6,8,10,12,14,-1,-1,-1,-1,-1,-1,-1,-1],"split_conditions":[5E0,2E0,2.5E1,2E0,NaN,NaN,NaN,-1.4137792E-2,-1.095286E-2,-3.9231824E-3,-8.909685E-3,7.0913426E-5,-6.8083378E-3,3.0234618E-2,4.6804207E-3],"split_indices":[2,2,2,9,5,5,5,0,0,0,0,0,0,0,0],"split_type":[0,0,0,0,1,1,1,0,0,0,0,0,0,0,0],"sum_hessian":[4.8496372E7,1.8098746E7,3.0397626E7,8.399591E6,9.699155E6,2.3299326E7,7.0982995E6,5.0487295E6,3.3508615E6,2.1595462E6,7.5396085E6,2.0628644E7,2.6706815E6,1.00375586E5,6.997924E6],"tree_param":{"num_deleted":"0","num_feature":"12","num_nodes":"15","size_leaf_vector":"1"}},{"base_weights":[-6.6502124E-2,-2.161117E-1,3.8547306E-3,-2.54543E-1,-1.7164521E-1,-5.9979197E-2,4.783676E-2,-1.3991772E-2,-1.082622E-2,-6.4280727E-3,-1.0367303E-2,1.7363465E-3,-4.1650934E-3,7.41028E-3,1.4808907E-3],"categories":[0,1,2,3,4,12,14,15,18,19,20,21,22,23,0,1,2,3,4,8,9,10,11,12,13,14,15,18,19,20,21,22,23,0,1,2,3,4,8,9,10,11,12,13,14,15,18,19,20,21,22,23],"categories_nodes":[4,5,6],"categories_segments":[0,14,33],"categories_sizes":[14,19,19],"default_left":[0,0,0,0,1,1,1,0,0,0,0,0,0,0,0],"id":73,"left_children":[1,3,5,7,9,11,13,-1,-1,-1,-1,-1,-1,-1,-1],"loss_changes":[5.085975E5,2.6410438E4,9.2265266E4,7.971375E3,1.1020297E4,2.961148E4,3.5579695E4,0E0,0E0,0E0,0E0,0E0,0E0,0E0,0E0],"parents":[2147483647,0,0,1,1,2,2,3,3,4,4,5,5,6,6],"right_children":[2,4,6,8,10,12,14,-1,-1,-1,-1,-1,-1,-1,-1],"split_conditions":[4E0,2E0,1.1E1,2E0,NaN,NaN,NaN,-1.3991772E-2,-1.082622E-2,-6.4280727E-3,-1.0367303E-2,1.7363465E-3,-4.1650934E-3,7.41028E-3,1.4808907E-3],"split_indices":[2,2,2,9,5,5,5,0,0,0,0,0,0,0,0],"split_type":[0,0,0,0,1,1,1,0,0,0,0,0,0,0,0],"sum_hessian":[4.8317944E7,1.5454624E7,3.286332E7,8.289878E6,7.1647455E6,1.3406137E7,1.9457184E7,4.978112E6,3.311766E6,3.2466702E6,3.9180755E6,2.6490732E6,1.0757064E7,2.9892558E6,1.6467928E7],"tree_param":{"num_deleted":"0","num_feature":"12","num_nodes":"15","size_leaf_vector":"1"}},{"base_weights":[-6.501225E-2,-1.8078567E-1,1.0398952E-2,-5.4571267E-2,-2.0570934E-1,2.8767565E-2,-1.0063945E-1,-1.2873947E-3,-1.2026561E-2,-1.2170342E-2,-7.1640895E-3,-3.596975E-4,4.562005E-3,-8.007701E-3,-2.257367E-3],"categories":[0,1,2,3,4,8,9,10,11,12,13,14,15,16,17,18,19,20,21,22,23,0,1,2,3,4,23],"categories_nodes":[1,2],"categories_segments":[0,21],"categories_sizes":[21,6],"default_left":[0,1,1,0,0,0,0,0,0,0,0,0,0,0,0],"id":74,"left_children":[1,3,5,7,9,11,13,-1,-1,-1,-1,-1,-1,-1,-1],"loss_changes":[4.2038466E5,5.9745562E4,5.9471312E4,1.678755E4,3.7325688E4,5.620829E4,1.3668805E4,0E0,0E0,0E0,0E0,0E0,0E0,0E0,0E0],"parents":[2147483647,0,0,1,1,2,2,3,3,4,4,5,5,6,6],"right_children":[2,4,6,8,10,12,14,-1,-1,-1,-1,-1,-1,-1,-1],"split_conditions":[5E0,NaN,NaN,-7.3945E1,3E0,1.6E1,1.5E1,-1.2873947E-3,-1.2026561E-2,-1.2170342E-2,-7.1640895E-3,-3.596975E-4,4.562005E-3,-8.007701E-3,-2.257367E-3],"split_indices":[8,5,5,0,9,9,8,0,0,0,0,0,0,0,0],"split_type":[0,1,1,0,0,0,0,0,0,0,0,0,0,0,0],"sum_hessian":[4.815063E7,1.899262E7,2.9158012E7,3.1320092E6,1.586061E7,2.5019194E7,4.1388188E6,2.7117025E6,4.2030666E5,9.889025E6,5.9715855E6,1.5878779E7,9.140415E6,1.9970294E6,2.1417895E6],"tree_param":{"num_deleted":"0","num_feature":"12","num_nodes":"15","size_leaf_vector":"1"}},{"base_weights":[-6.377204E-2,-2.1050389E-1,3.94808E-3,-2.520589E-1,-1.6928272E-1,-5.701743E-2,4.5641523E-2,-7.128475E-3,-1.3287011E-2,-7.1193115E-3,-1.1756802E-2,-1.7902242E-3,-7.921088E-3,7.15554E-3,1.3882365E-3],"categories":[0,1,2,3,4,7,8,9,10,11,12,13,14,15,16,17,18,19,20,21,22,23,0,1,2,3,4,22,23,0,1,2,3,4,22,23,0,1,2,3,4,8,9,10,11,12,13,14,15,18,19,20,21,22,23],"categories_nodes":[3,4,5,6],"categories_segments":[0,22,29,36],"categories_sizes":[22,7,7,19],"default_left":[0,0,0,1,1,1,1,0,0,0,0,0,0,0,0],"id":75,"left_children":[1,3,5,7,9,11,13,-1,-1,-1,-1,-1,-1,-1,-1],"loss_changes":[4.7703088E5,2.5967938E4,8.349314E4,1.13085E4,1.347975E4,2.8696387E4,3.3989406E4,0E0,0E0,0E0,0E0,0E0,0E0,0E0,0E0],"parents":[2147483647,0,0,1,1,2,2,3,3,4,4,5,5,6,6],"right_children":[2,4,6,8,10,12,14,-1,-1,-1,-1,-1,-1,-1,-1],"split_conditions":[4E0,2E0,1.1E1,NaN,NaN,NaN,NaN,-7.128475E-3,-1.3287011E-2,-7.1193115E-3,-1.1756802E-2,-1.7902242E-3,-7.921088E-3,7.15554E-3,1.3882365E-3],"split_indices":[2,8,2,5,5,5,5,0,0,0,0,0,0,0,0],"split_type":[0,0,0,1,1,1,1,0,0,0,0,0,0,0,0],"sum_hessian":[4.8006988E7,1.5159752E7,3.2847234E7,7.5493045E6,7.6104475E6,1.3340427E7,1.9506808E7,8.385477E5,6.710757E6,5.4034985E6,2.206949E6,1.1032517E7,2.3079102E6,3.0232415E6,1.6483566E7],"tree_param":{"num_deleted":"0","num_feature":"12","num_nodes":"15","size_leaf_vector":"1"}},{"base_weights":[-6.2389836E-2,-2.0744972E-1,3.855831E-3,-2.4623601E-1,-1.6289133E-1,-6.188046E-2,4.0788624E-2,-1.35875745E-2,-1.0410848E-2,-3.926337E-3,-9.049466E-3,9.386508E-4,-4.420476E-3,9.3175395E-4,5.849859E-3],"categories":[0,1,2,3,4,7,8,9,10,11,12,13,14,15,18,19,20,21,22,23,0,1,2,3,4,9,10,11,12,13,14,15,18,19,20,21,22,23],"categories_nodes":[4,5],"categories_segments":[0,20],"categories_sizes":[20,18],"default_left":[0,0,0,0,1,1,0,0,0,0,0,0,0,0,0],"id":76,"left_children":[1,3,5,7,9,11,13,-1,-1,-1,-1,-1,-1,-1,-1],"loss_changes":[4.5994912E5,2.5933312E4,7.9773516E4,7.7821875E3,1.0662078E4,2.5290578E4,3.551844E4,0E0,0E0,0E0,0E0,0E0,0E0,0E0,0E0],"parents":[2147483647,0,0,1,1,2,2,3,3,4,4,5,5,6,6],"right_children":[2,4,6,8,10,12,14,-1,-1,-1,-1,-1,-1,-1,-1],"split_conditions":[4E0,2E0,1E1,2E0,NaN,NaN,3.2E1,-1.35875745E-2,-1.0410848E-2,-3.926337E-3,-9.049466E-3,9.386508E-4,-4.420476E-3,9.3175395E-4,5.849859E-3],"split_indices":[2,2,2,9,5,5,2,0,0,0,0,0,0,0,0],"split_type":[0,0,0,0,1,1,0,0,0,0,0,0,0,0,0],"sum_hessian":[4.7863556E7,1.5005535E7,3.2858018E7,8.022376E6,6.9831595E6,1.1819901E7,2.1038118E7,4.800583E6,3.2217932E6,1.2334374E6,5.749722E6,2.925578E6,8.894323E6,1.6299822E7,4.7382965E6],"tree_param":{"num_deleted":"0","num_feature":"12","num_nodes":"15","size_leaf_vector":"1"}},{"base_weights":[-6.087158E-2,-2.0448959E-1,4.10018E-3,-2.3206857E-1,-1.4209884E-1,-4.9818255E-2,4.747127E-2,-6.048713E-3,-1.226412E-2,-5.453711E-3,-1.0898986E-2,-1.4617288E-3,-7.509065E-3,1.8386582E-3,1.0179177E-2],"categories":[0,1,2,3,4,7,8,9,10,11,12,13,14,15,16,17,18,19,20,21,22,23,0,1,2,3,4,22,23,0,1,2,3,4,22,23],"categories_nodes":[3,4,5],"categories_segments":[0,22,29],"categories_sizes":[22,7,7],"default_left":[0,0,0,1,1,1,0,0,0,0,0,0,0,0,0],"id":77,"left_children":[1,3,5,7,9,11,13,-1,-1,-1,-1,-1,-1,-1,-1],"loss_changes":[4.4532534E5,2.55785E4,7.6841805E4,1.513275E4,1.1418977E4,3.026152E4,3.0414094E4,0E0,0E0,0E0,0E0,0E0,0E0,0E0,0E0],"parents":[2147483647,0,0,1,1,2,2,3,3,4,4,5,5,6,6],"right_children":[2,4,6,8,10,12,14,-1,-1,-1,-1,-1,-1,-1,-1],"split_conditions":[4E0,3E0,1.2E1,NaN,NaN,NaN,7.4E1,-6.048713E-3,-1.226412E-2,-5.453711E-3,-1.0898986E-2,-1.4617288E-3,-7.509065E-3,1.8386582E-3,1.0179177E-2],"split_indices":[2,8,2,5,5,5,2,0,0,0,0,0,0,0,0],"split_type":[0,0,0,1,1,1,0,0,0,0,0,0,0,0,0],"sum_hessian":[4.772478E7,1.4865364E7,3.2859416E7,1.0308589E7,4.5567755E6,1.4648531E7,1.8210884E7,1.0957934E6,9.212795E6,3.1749752E6,1.3818E6,1.2155529E7,2.4930028E6,1.704296E7,1.1679235E6],"tree_param":{"num_deleted":"0","num_feature":"12","num_nodes":"15","size_leaf_vector":"1"}},{"base_weights":[-5.973199E-2,-2.0140585E-1,3.61806E-3,-2.4021646E-1,-1.5714025E-1,-4.864765E-2,4.5491226E-2,-1.3304937E-2,-1.0090214E-2,-6.229495E-3,-1.018219E-2,2.0712453E-3,-3.5469693E-3,6.9093504E-3,1.4315047E-3],"categories":[0,1,2,3,4,15,19,20,21,22,23,0,1,2,3,4,8,9,10,11,12,13,14,15,18,19,20,21,22,23,0,1,2,3,4,8,9,10,11,12,13,14,15,18,19,20,21,22,23],"categories_nodes":[4,5,6],"categories_segments":[0,11,30],"categories_sizes":[11,19,19],"default_left":[0,0,0,0,1,1,1,0,0,0,0,0,0,0,0],"id":78,"left_children":[1,3,5,7,9,11,13,-1,-1,-1,-1,-1,-1,-1,-1],"loss_changes":[4.2710062E5,2.5261125E4,7.1966664E4,7.7892188E3,1.0397969E4,2.9368516E4,2.85347E4,0E0,0E0,0E0,0E0,0E0,0E0,0E0,0E0],"parents":[2147483647,0,0,1,1,2,2,3,3,4,4,5,5,6,6],"right_children":[2,4,6,8,10,12,14,-1,-1,-1,-1,-1,-1,-1,-1],"split_conditions":[4E0,2E0,1.2E1,2E0,NaN,NaN,NaN,-1.3304937E-2,-1.0090214E-2,-6.229495E-3,-1.018219E-2,2.0712453E-3,-3.5469693E-3,6.9093504E-3,1.4315047E-3],"split_indices":[2,2,2,9,5,5,5,0,0,0,0,0,0,0,0],"split_type":[0,0,0,0,1,1,1,0,0,0,0,0,0,0,0],"sum_hessian":[4.758757E7,1.4704015E7,3.2883554E7,7.834756E6,6.8692595E6,1.4626672E7,1.8256882E7,4.6808075E6,3.1539485E6,4.0408512E6,2.8284082E6,2.9017572E6,1.1724915E7,2.8097868E6,1.5447095E7],"tree_param":{"num_deleted":"0","num_feature":"12","num_nodes":"15","size_leaf_vector":"1"}},{"base_weights":[-5.830063E-2,-1.8320672E-1,1.117856E-2,-2.3702067E-1,-1.3801806E-1,-1.0143944E-2,9.783533E-2,-1.3047141E-2,-9.812838E-3,-5.785007E-3,-1.06598595E-2,9.026998E-4,-3.402453E-3,2.7100692E-2,4.523353E-3],"categories":[0,1,2,3,4,22,23,0,1,2,3,4,9,15,19,22,23,0,1,2,3,4,7,8,9,10,11,12,13,14,15,16,17,18,19,20,21,22,23],"categories_nodes":[4,5,6],"categories_segments":[0,7,17],"categories_sizes":[7,10,22],"default_left":[0,0,0,0,1,1,1,0,0,0,0,0,0,0,0],